digraph Tree {
node [shape=box, style="filled, rounded", color="black", fontname="helvetica"] ;
edge [fontname="helvetica"] ;
0 [label=<DepTime &le; -0.027<br/>gini = 0.308<br/>samples = 80000<br/>value = [64787.0, 15213.0]<br/>class = 0.0>, fillcolor="#eb9f67"] ;
1 [label=<DepTime &le; -2.072<br/>gini = 0.193<br/>samples = 39892<br/>value = [35587, 4305]<br/>class = 0.0>, fillcolor="#e89051"] ;
0 -> 1 [labeldistance=2.5, labelangle=45, headlabel="True"] ;
2 [label=<Distance &le; 0.478<br/>gini = 0.491<br/>samples = 343<br/>value = [148, 195]<br/>class = 1.0>, fillcolor="#cfe7f9"] ;
1 -> 2 ;
3 [label=<DepTime &le; -2.781<br/>gini = 0.129<br/>samples = 115<br/>value = [8, 107]<br/>class = 1.0>, fillcolor="#48a4e7"] ;
2 -> 3 ;
4 [label=<Origin &le; 158.0<br/>gini = 0.454<br/>samples = 23<br/>value = [8, 15]<br/>class = 1.0>, fillcolor="#a3d1f3"] ;
3 -> 4 ;
5 [label=<Origin &le; 17.5<br/>gini = 0.231<br/>samples = 15<br/>value = [2, 13]<br/>class = 1.0>, fillcolor="#57ace9"] ;
4 -> 5 ;
6 [label=<gini = 0.0<br/>samples = 2<br/>value = [2, 0]<br/>class = 0.0>, fillcolor="#e58139"] ;
5 -> 6 ;
7 [label=<gini = 0.0<br/>samples = 13<br/>value = [0, 13]<br/>class = 1.0>, fillcolor="#399de5"] ;
5 -> 7 ;
8 [label=<Distance &le; -0.485<br/>gini = 0.375<br/>samples = 8<br/>value = [6, 2]<br/>class = 0.0>, fillcolor="#eeab7b"] ;
4 -> 8 ;
9 [label=<gini = 0.0<br/>samples = 5<br/>value = [5, 0]<br/>class = 0.0>, fillcolor="#e58139"] ;
8 -> 9 ;
10 [label=<DayOfWeek &le; 5.5<br/>gini = 0.444<br/>samples = 3<br/>value = [1, 2]<br/>class = 1.0>, fillcolor="#9ccef2"] ;
8 -> 10 ;
11 [label=<gini = 0.0<br/>samples = 2<br/>value = [0, 2]<br/>class = 1.0>, fillcolor="#399de5"] ;
10 -> 11 ;
12 [label=<gini = 0.0<br/>samples = 1<br/>value = [1, 0]<br/>class = 0.0>, fillcolor="#e58139"] ;
10 -> 12 ;
13 [label=<gini = 0.0<br/>samples = 92<br/>value = [0, 92]<br/>class = 1.0>, fillcolor="#399de5"] ;
3 -> 13 ;
14 [label=<Distance &le; 1.273<br/>gini = 0.474<br/>samples = 228<br/>value = [140, 88]<br/>class = 0.0>, fillcolor="#f5d0b5"] ;
2 -> 14 ;
15 [label=<DepTime &le; -2.573<br/>gini = 0.283<br/>samples = 82<br/>value = [68.0, 14.0]<br/>class = 0.0>, fillcolor="#ea9b62"] ;
14 -> 15 ;
16 [label=<Distance &le; 0.569<br/>gini = 0.188<br/>samples = 57<br/>value = [51, 6]<br/>class = 0.0>, fillcolor="#e89050"] ;
15 -> 16 ;
17 [label=<DepTime &le; -2.642<br/>gini = 0.444<br/>samples = 3<br/>value = [1, 2]<br/>class = 1.0>, fillcolor="#9ccef2"] ;
16 -> 17 ;
18 [label=<gini = 0.0<br/>samples = 2<br/>value = [0, 2]<br/>class = 1.0>, fillcolor="#399de5"] ;
17 -> 18 ;
19 [label=<gini = 0.0<br/>samples = 1<br/>value = [1, 0]<br/>class = 0.0>, fillcolor="#e58139"] ;
17 -> 19 ;
20 [label=<Dest &le; 10.5<br/>gini = 0.137<br/>samples = 54<br/>value = [50, 4]<br/>class = 0.0>, fillcolor="#e78b49"] ;
16 -> 20 ;
21 [label=<gini = 0.0<br/>samples = 1<br/>value = [0, 1]<br/>class = 1.0>, fillcolor="#399de5"] ;
20 -> 21 ;
22 [label=<UniqueCarrier &le; 19.0<br/>gini = 0.107<br/>samples = 53<br/>value = [50, 3]<br/>class = 0.0>, fillcolor="#e78945"] ;
20 -> 22 ;
23 [label=<DayOfWeek &le; 2.5<br/>gini = 0.075<br/>samples = 51<br/>value = [49, 2]<br/>class = 0.0>, fillcolor="#e68641"] ;
22 -> 23 ;
24 [label=<DepTime &le; -2.716<br/>gini = 0.198<br/>samples = 18<br/>value = [16, 2]<br/>class = 0.0>, fillcolor="#e89152"] ;
23 -> 24 ;
25 [label=<DepTime &le; -2.727<br/>gini = 0.346<br/>samples = 9<br/>value = [7, 2]<br/>class = 0.0>, fillcolor="#eca572"] ;
24 -> 25 ;
26 [label=<gini = 0.0<br/>samples = 7<br/>value = [7, 0]<br/>class = 0.0>, fillcolor="#e58139"] ;
25 -> 26 ;
27 [label=<gini = 0.0<br/>samples = 2<br/>value = [0, 2]<br/>class = 1.0>, fillcolor="#399de5"] ;
25 -> 27 ;
28 [label=<gini = 0.0<br/>samples = 9<br/>value = [9, 0]<br/>class = 0.0>, fillcolor="#e58139"] ;
24 -> 28 ;
29 [label=<gini = 0.0<br/>samples = 33<br/>value = [33, 0]<br/>class = 0.0>, fillcolor="#e58139"] ;
23 -> 29 ;
30 [label=<DepTime &le; -2.696<br/>gini = 0.5<br/>samples = 2<br/>value = [1, 1]<br/>class = 0.0>, fillcolor="#ffffff"] ;
22 -> 30 ;
31 [label=<gini = 0.0<br/>samples = 1<br/>value = [0, 1]<br/>class = 1.0>, fillcolor="#399de5"] ;
30 -> 31 ;
32 [label=<gini = 0.0<br/>samples = 1<br/>value = [1, 0]<br/>class = 0.0>, fillcolor="#e58139"] ;
30 -> 32 ;
33 [label=<Dest &le; 122.5<br/>gini = 0.435<br/>samples = 25<br/>value = [17, 8]<br/>class = 0.0>, fillcolor="#f1bc96"] ;
15 -> 33 ;
34 [label=<gini = 0.0<br/>samples = 2<br/>value = [0, 2]<br/>class = 1.0>, fillcolor="#399de5"] ;
33 -> 34 ;
35 [label=<DayofMonth &le; 29.0<br/>gini = 0.386<br/>samples = 23<br/>value = [17, 6]<br/>class = 0.0>, fillcolor="#eead7f"] ;
33 -> 35 ;
36 [label=<DayofMonth &le; 23.0<br/>gini = 0.351<br/>samples = 22<br/>value = [17, 5]<br/>class = 0.0>, fillcolor="#eda673"] ;
35 -> 36 ;
37 [label=<DayofMonth &le; 16.0<br/>gini = 0.473<br/>samples = 13<br/>value = [8, 5]<br/>class = 0.0>, fillcolor="#f5d0b5"] ;
36 -> 37 ;
38 [label=<gini = 0.0<br/>samples = 6<br/>value = [6, 0]<br/>class = 0.0>, fillcolor="#e58139"] ;
37 -> 38 ;
39 [label=<Dest &le; 170.0<br/>gini = 0.408<br/>samples = 7<br/>value = [2, 5]<br/>class = 1.0>, fillcolor="#88c4ef"] ;
37 -> 39 ;
40 [label=<gini = 0.0<br/>samples = 2<br/>value = [2, 0]<br/>class = 0.0>, fillcolor="#e58139"] ;
39 -> 40 ;
41 [label=<gini = 0.0<br/>samples = 5<br/>value = [0, 5]<br/>class = 1.0>, fillcolor="#399de5"] ;
39 -> 41 ;
42 [label=<gini = 0.0<br/>samples = 9<br/>value = [9, 0]<br/>class = 0.0>, fillcolor="#e58139"] ;
36 -> 42 ;
43 [label=<gini = 0.0<br/>samples = 1<br/>value = [0, 1]<br/>class = 1.0>, fillcolor="#399de5"] ;
35 -> 43 ;
44 [label=<DepTime &le; -2.587<br/>gini = 0.5<br/>samples = 146<br/>value = [72, 74]<br/>class = 1.0>, fillcolor="#fafcfe"] ;
14 -> 44 ;
45 [label=<DayOfWeek &le; 4.5<br/>gini = 0.488<br/>samples = 111<br/>value = [64, 47]<br/>class = 0.0>, fillcolor="#f8deca"] ;
44 -> 45 ;
46 [label=<Dest &le; 81.5<br/>gini = 0.495<br/>samples = 67<br/>value = [30, 37]<br/>class = 1.0>, fillcolor="#daecfa"] ;
45 -> 46 ;
47 [label=<Month &le; 8.0<br/>gini = 0.142<br/>samples = 13<br/>value = [1, 12]<br/>class = 1.0>, fillcolor="#49a5e7"] ;
46 -> 47 ;
48 [label=<gini = 0.0<br/>samples = 11<br/>value = [0, 11]<br/>class = 1.0>, fillcolor="#399de5"] ;
47 -> 48 ;
49 [label=<Dest &le; 30.0<br/>gini = 0.5<br/>samples = 2<br/>value = [1, 1]<br/>class = 0.0>, fillcolor="#ffffff"] ;
47 -> 49 ;
50 [label=<gini = 0.0<br/>samples = 1<br/>value = [0, 1]<br/>class = 1.0>, fillcolor="#399de5"] ;
49 -> 50 ;
51 [label=<gini = 0.0<br/>samples = 1<br/>value = [1, 0]<br/>class = 0.0>, fillcolor="#e58139"] ;
49 -> 51 ;
52 [label=<UniqueCarrier &le; 15.5<br/>gini = 0.497<br/>samples = 54<br/>value = [29.0, 25.0]<br/>class = 0.0>, fillcolor="#fbeee4"] ;
46 -> 52 ;
53 [label=<Month &le; 10.5<br/>gini = 0.467<br/>samples = 43<br/>value = [27, 16]<br/>class = 0.0>, fillcolor="#f4ccae"] ;
52 -> 53 ;
54 [label=<Dest &le; 200.0<br/>gini = 0.397<br/>samples = 33<br/>value = [24, 9]<br/>class = 0.0>, fillcolor="#efb083"] ;
53 -> 54 ;
55 [label=<Distance &le; 2.278<br/>gini = 0.461<br/>samples = 25<br/>value = [16, 9]<br/>class = 0.0>, fillcolor="#f4c8a8"] ;
54 -> 55 ;
56 [label=<Distance &le; 1.288<br/>gini = 0.26<br/>samples = 13<br/>value = [11, 2]<br/>class = 0.0>, fillcolor="#ea985d"] ;
55 -> 56 ;
57 [label=<gini = 0.0<br/>samples = 1<br/>value = [0, 1]<br/>class = 1.0>, fillcolor="#399de5"] ;
56 -> 57 ;
58 [label=<Month &le; 2.5<br/>gini = 0.153<br/>samples = 12<br/>value = [11, 1]<br/>class = 0.0>, fillcolor="#e78c4b"] ;
56 -> 58 ;
59 [label=<gini = 0.0<br/>samples = 1<br/>value = [0, 1]<br/>class = 1.0>, fillcolor="#399de5"] ;
58 -> 59 ;
60 [label=<gini = 0.0<br/>samples = 11<br/>value = [11, 0]<br/>class = 0.0>, fillcolor="#e58139"] ;
58 -> 60 ;
61 [label=<DayOfWeek &le; 1.5<br/>gini = 0.486<br/>samples = 12<br/>value = [5, 7]<br/>class = 1.0>, fillcolor="#c6e3f8"] ;
55 -> 61 ;
62 [label=<gini = 0.0<br/>samples = 2<br/>value = [0, 2]<br/>class = 1.0>, fillcolor="#399de5"] ;
61 -> 62 ;
63 [label=<flight &le; 4091.0<br/>gini = 0.5<br/>samples = 10<br/>value = [5, 5]<br/>class = 0.0>, fillcolor="#ffffff"] ;
61 -> 63 ;
64 [label=<Month &le; 8.5<br/>gini = 0.444<br/>samples = 6<br/>value = [2, 4]<br/>class = 1.0>, fillcolor="#9ccef2"] ;
63 -> 64 ;
65 [label=<gini = 0.0<br/>samples = 3<br/>value = [0, 3]<br/>class = 1.0>, fillcolor="#399de5"] ;
64 -> 65 ;
66 [label=<DayOfWeek &le; 3.5<br/>gini = 0.444<br/>samples = 3<br/>value = [2, 1]<br/>class = 0.0>, fillcolor="#f2c09c"] ;
64 -> 66 ;
67 [label=<gini = 0.0<br/>samples = 2<br/>value = [2, 0]<br/>class = 0.0>, fillcolor="#e58139"] ;
66 -> 67 ;
68 [label=<gini = 0.0<br/>samples = 1<br/>value = [0, 1]<br/>class = 1.0>, fillcolor="#399de5"] ;
66 -> 68 ;
69 [label=<Month &le; 4.5<br/>gini = 0.375<br/>samples = 4<br/>value = [3, 1]<br/>class = 0.0>, fillcolor="#eeab7b"] ;
63 -> 69 ;
70 [label=<gini = 0.0<br/>samples = 2<br/>value = [2, 0]<br/>class = 0.0>, fillcolor="#e58139"] ;
69 -> 70 ;
71 [label=<DepTime &le; -2.761<br/>gini = 0.5<br/>samples = 2<br/>value = [1, 1]<br/>class = 0.0>, fillcolor="#ffffff"] ;
69 -> 71 ;
72 [label=<gini = 0.0<br/>samples = 1<br/>value = [1, 0]<br/>class = 0.0>, fillcolor="#e58139"] ;
71 -> 72 ;
73 [label=<gini = 0.0<br/>samples = 1<br/>value = [0, 1]<br/>class = 1.0>, fillcolor="#399de5"] ;
71 -> 73 ;
74 [label=<gini = 0.0<br/>samples = 8<br/>value = [8, 0]<br/>class = 0.0>, fillcolor="#e58139"] ;
54 -> 74 ;
75 [label=<flight &le; 2616.5<br/>gini = 0.42<br/>samples = 10<br/>value = [3, 7]<br/>class = 1.0>, fillcolor="#8ec7f0"] ;
53 -> 75 ;
76 [label=<gini = 0.0<br/>samples = 5<br/>value = [0, 5]<br/>class = 1.0>, fillcolor="#399de5"] ;
75 -> 76 ;
77 [label=<Dest &le; 138.5<br/>gini = 0.48<br/>samples = 5<br/>value = [3, 2]<br/>class = 0.0>, fillcolor="#f6d5bd"] ;
75 -> 77 ;
78 [label=<gini = 0.0<br/>samples = 2<br/>value = [0, 2]<br/>class = 1.0>, fillcolor="#399de5"] ;
77 -> 78 ;
79 [label=<gini = 0.0<br/>samples = 3<br/>value = [3, 0]<br/>class = 0.0>, fillcolor="#e58139"] ;
77 -> 79 ;
80 [label=<DayOfWeek &le; 1.5<br/>gini = 0.298<br/>samples = 11<br/>value = [2, 9]<br/>class = 1.0>, fillcolor="#65b3eb"] ;
52 -> 80 ;
81 [label=<gini = 0.0<br/>samples = 2<br/>value = [2, 0]<br/>class = 0.0>, fillcolor="#e58139"] ;
80 -> 81 ;
82 [label=<gini = 0.0<br/>samples = 9<br/>value = [0, 9]<br/>class = 1.0>, fillcolor="#399de5"] ;
80 -> 82 ;
83 [label=<UniqueCarrier &le; 16.0<br/>gini = 0.351<br/>samples = 44<br/>value = [34, 10]<br/>class = 0.0>, fillcolor="#eda673"] ;
45 -> 83 ;
84 [label=<Month &le; 3.5<br/>gini = 0.266<br/>samples = 38<br/>value = [32, 6]<br/>class = 0.0>, fillcolor="#ea995e"] ;
83 -> 84 ;
85 [label=<Dest &le; 160.0<br/>gini = 0.5<br/>samples = 8<br/>value = [4, 4]<br/>class = 0.0>, fillcolor="#ffffff"] ;
84 -> 85 ;
86 [label=<Origin &le; 160.0<br/>gini = 0.444<br/>samples = 6<br/>value = [2, 4]<br/>class = 1.0>, fillcolor="#9ccef2"] ;
85 -> 86 ;
87 [label=<flight &le; 1356.0<br/>gini = 0.444<br/>samples = 3<br/>value = [2, 1]<br/>class = 0.0>, fillcolor="#f2c09c"] ;
86 -> 87 ;
88 [label=<gini = 0.0<br/>samples = 1<br/>value = [0, 1]<br/>class = 1.0>, fillcolor="#399de5"] ;
87 -> 88 ;
89 [label=<gini = 0.0<br/>samples = 2<br/>value = [2, 0]<br/>class = 0.0>, fillcolor="#e58139"] ;
87 -> 89 ;
90 [label=<gini = 0.0<br/>samples = 3<br/>value = [0, 3]<br/>class = 1.0>, fillcolor="#399de5"] ;
86 -> 90 ;
91 [label=<gini = 0.0<br/>samples = 2<br/>value = [2, 0]<br/>class = 0.0>, fillcolor="#e58139"] ;
85 -> 91 ;
92 [label=<DayofMonth &le; 23.5<br/>gini = 0.124<br/>samples = 30<br/>value = [28, 2]<br/>class = 0.0>, fillcolor="#e78a47"] ;
84 -> 92 ;
93 [label=<gini = 0.0<br/>samples = 24<br/>value = [24, 0]<br/>class = 0.0>, fillcolor="#e58139"] ;
92 -> 93 ;
94 [label=<Origin &le; 209.5<br/>gini = 0.444<br/>samples = 6<br/>value = [4, 2]<br/>class = 0.0>, fillcolor="#f2c09c"] ;
92 -> 94 ;
95 [label=<gini = 0.0<br/>samples = 4<br/>value = [4, 0]<br/>class = 0.0>, fillcolor="#e58139"] ;
94 -> 95 ;
96 [label=<gini = 0.0<br/>samples = 2<br/>value = [0, 2]<br/>class = 1.0>, fillcolor="#399de5"] ;
94 -> 96 ;
97 [label=<DepTime &le; -2.787<br/>gini = 0.444<br/>samples = 6<br/>value = [2, 4]<br/>class = 1.0>, fillcolor="#9ccef2"] ;
83 -> 97 ;
98 [label=<gini = 0.0<br/>samples = 2<br/>value = [2, 0]<br/>class = 0.0>, fillcolor="#e58139"] ;
97 -> 98 ;
99 [label=<gini = 0.0<br/>samples = 4<br/>value = [0, 4]<br/>class = 1.0>, fillcolor="#399de5"] ;
97 -> 99 ;
100 [label=<Origin &le; 17.5<br/>gini = 0.353<br/>samples = 35<br/>value = [8, 27]<br/>class = 1.0>, fillcolor="#74baed"] ;
44 -> 100 ;
101 [label=<flight &le; 106.0<br/>gini = 0.444<br/>samples = 6<br/>value = [4, 2]<br/>class = 0.0>, fillcolor="#f2c09c"] ;
100 -> 101 ;
102 [label=<gini = 0.0<br/>samples = 1<br/>value = [0, 1]<br/>class = 1.0>, fillcolor="#399de5"] ;
101 -> 102 ;
103 [label=<UniqueCarrier &le; 15.5<br/>gini = 0.32<br/>samples = 5<br/>value = [4, 1]<br/>class = 0.0>, fillcolor="#eca06a"] ;
101 -> 103 ;
104 [label=<gini = 0.0<br/>samples = 3<br/>value = [3, 0]<br/>class = 0.0>, fillcolor="#e58139"] ;
103 -> 104 ;
105 [label=<DepTime &le; -2.526<br/>gini = 0.5<br/>samples = 2<br/>value = [1, 1]<br/>class = 0.0>, fillcolor="#ffffff"] ;
103 -> 105 ;
106 [label=<gini = 0.0<br/>samples = 1<br/>value = [1, 0]<br/>class = 0.0>, fillcolor="#e58139"] ;
105 -> 106 ;
107 [label=<gini = 0.0<br/>samples = 1<br/>value = [0, 1]<br/>class = 1.0>, fillcolor="#399de5"] ;
105 -> 107 ;
108 [label=<DepTime &le; -2.379<br/>gini = 0.238<br/>samples = 29<br/>value = [4, 25]<br/>class = 1.0>, fillcolor="#59ade9"] ;
100 -> 108 ;
109 [label=<Month &le; 1.5<br/>gini = 0.091<br/>samples = 21<br/>value = [1, 20]<br/>class = 1.0>, fillcolor="#43a2e6"] ;
108 -> 109 ;
110 [label=<DayofMonth &le; 2.5<br/>gini = 0.5<br/>samples = 2<br/>value = [1, 1]<br/>class = 0.0>, fillcolor="#ffffff"] ;
109 -> 110 ;
111 [label=<gini = 0.0<br/>samples = 1<br/>value = [1, 0]<br/>class = 0.0>, fillcolor="#e58139"] ;
110 -> 111 ;
112 [label=<gini = 0.0<br/>samples = 1<br/>value = [0, 1]<br/>class = 1.0>, fillcolor="#399de5"] ;
110 -> 112 ;
113 [label=<gini = 0.0<br/>samples = 19<br/>value = [0, 19]<br/>class = 1.0>, fillcolor="#399de5"] ;
109 -> 113 ;
114 [label=<Distance &le; 1.668<br/>gini = 0.469<br/>samples = 8<br/>value = [3, 5]<br/>class = 1.0>, fillcolor="#b0d8f5"] ;
108 -> 114 ;
115 [label=<gini = 0.0<br/>samples = 2<br/>value = [2, 0]<br/>class = 0.0>, fillcolor="#e58139"] ;
114 -> 115 ;
116 [label=<DayofMonth &le; 26.5<br/>gini = 0.278<br/>samples = 6<br/>value = [1, 5]<br/>class = 1.0>, fillcolor="#61b1ea"] ;
114 -> 116 ;
117 [label=<gini = 0.0<br/>samples = 5<br/>value = [0, 5]<br/>class = 1.0>, fillcolor="#399de5"] ;
116 -> 117 ;
118 [label=<gini = 0.0<br/>samples = 1<br/>value = [1, 0]<br/>class = 0.0>, fillcolor="#e58139"] ;
116 -> 118 ;
119 [label=<DepTime &le; -0.913<br/>gini = 0.186<br/>samples = 39549<br/>value = [35439, 4110]<br/>class = 0.0>, fillcolor="#e89050"] ;
1 -> 119 ;
120 [label=<DepTime &le; -1.327<br/>gini = 0.095<br/>samples = 17127<br/>value = [16273, 854]<br/>class = 0.0>, fillcolor="#e68843"] ;
119 -> 120 ;
121 [label=<DepTime &le; -1.515<br/>gini = 0.042<br/>samples = 7082<br/>value = [6931, 151]<br/>class = 0.0>, fillcolor="#e6843d"] ;
120 -> 121 ;
122 [label=<flight &le; 4423.5<br/>gini = 0.012<br/>samples = 2508<br/>value = [2493, 15]<br/>class = 0.0>, fillcolor="#e5823a"] ;
121 -> 122 ;
123 [label=<Dest &le; 22.0<br/>gini = 0.009<br/>samples = 2244<br/>value = [2234, 10]<br/>class = 0.0>, fillcolor="#e5823a"] ;
122 -> 123 ;
124 [label=<UniqueCarrier &le; 12.5<br/>gini = 0.024<br/>samples = 410<br/>value = [405, 5]<br/>class = 0.0>, fillcolor="#e5833b"] ;
123 -> 124 ;
125 [label=<Month &le; 3.5<br/>gini = 0.02<br/>samples = 399<br/>value = [395, 4]<br/>class = 0.0>, fillcolor="#e5823b"] ;
124 -> 125 ;
126 [label=<Origin &le; 246.5<br/>gini = 0.061<br/>samples = 95<br/>value = [92, 3]<br/>class = 0.0>, fillcolor="#e6853f"] ;
125 -> 126 ;
127 [label=<DayofMonth &le; 2.5<br/>gini = 0.043<br/>samples = 92<br/>value = [90, 2]<br/>class = 0.0>, fillcolor="#e6843d"] ;
126 -> 127 ;
128 [label=<DayOfWeek &le; 2.0<br/>gini = 0.245<br/>samples = 7<br/>value = [6, 1]<br/>class = 0.0>, fillcolor="#e9965a"] ;
127 -> 128 ;
129 [label=<gini = 0.0<br/>samples = 1<br/>value = [0, 1]<br/>class = 1.0>, fillcolor="#399de5"] ;
128 -> 129 ;
130 [label=<gini = 0.0<br/>samples = 6<br/>value = [6, 0]<br/>class = 0.0>, fillcolor="#e58139"] ;
128 -> 130 ;
131 [label=<flight &le; 3639.0<br/>gini = 0.023<br/>samples = 85<br/>value = [84, 1]<br/>class = 0.0>, fillcolor="#e5823b"] ;
127 -> 131 ;
132 [label=<gini = 0.0<br/>samples = 71<br/>value = [71, 0]<br/>class = 0.0>, fillcolor="#e58139"] ;
131 -> 132 ;
133 [label=<flight &le; 3734.5<br/>gini = 0.133<br/>samples = 14<br/>value = [13, 1]<br/>class = 0.0>, fillcolor="#e78b48"] ;
131 -> 133 ;
134 [label=<gini = 0.0<br/>samples = 1<br/>value = [0, 1]<br/>class = 1.0>, fillcolor="#399de5"] ;
133 -> 134 ;
135 [label=<gini = 0.0<br/>samples = 13<br/>value = [13, 0]<br/>class = 0.0>, fillcolor="#e58139"] ;
133 -> 135 ;
136 [label=<flight &le; 4240.0<br/>gini = 0.444<br/>samples = 3<br/>value = [2, 1]<br/>class = 0.0>, fillcolor="#f2c09c"] ;
126 -> 136 ;
137 [label=<gini = 0.0<br/>samples = 1<br/>value = [0, 1]<br/>class = 1.0>, fillcolor="#399de5"] ;
136 -> 137 ;
138 [label=<gini = 0.0<br/>samples = 2<br/>value = [2, 0]<br/>class = 0.0>, fillcolor="#e58139"] ;
136 -> 138 ;
139 [label=<DepTime &le; -1.521<br/>gini = 0.007<br/>samples = 304<br/>value = [303, 1]<br/>class = 0.0>, fillcolor="#e5813a"] ;
125 -> 139 ;
140 [label=<gini = 0.0<br/>samples = 290<br/>value = [290, 0]<br/>class = 0.0>, fillcolor="#e58139"] ;
139 -> 140 ;
141 [label=<DepTime &le; -1.518<br/>gini = 0.133<br/>samples = 14<br/>value = [13, 1]<br/>class = 0.0>, fillcolor="#e78b48"] ;
139 -> 141 ;
142 [label=<Distance &le; -0.66<br/>gini = 0.444<br/>samples = 3<br/>value = [2, 1]<br/>class = 0.0>, fillcolor="#f2c09c"] ;
141 -> 142 ;
143 [label=<gini = 0.0<br/>samples = 2<br/>value = [2, 0]<br/>class = 0.0>, fillcolor="#e58139"] ;
142 -> 143 ;
144 [label=<gini = 0.0<br/>samples = 1<br/>value = [0, 1]<br/>class = 1.0>, fillcolor="#399de5"] ;
142 -> 144 ;
145 [label=<gini = 0.0<br/>samples = 11<br/>value = [11, 0]<br/>class = 0.0>, fillcolor="#e58139"] ;
141 -> 145 ;
146 [label=<DepTime &le; -1.704<br/>gini = 0.165<br/>samples = 11<br/>value = [10, 1]<br/>class = 0.0>, fillcolor="#e88e4d"] ;
124 -> 146 ;
147 [label=<gini = 0.0<br/>samples = 1<br/>value = [0, 1]<br/>class = 1.0>, fillcolor="#399de5"] ;
146 -> 147 ;
148 [label=<gini = 0.0<br/>samples = 10<br/>value = [10, 0]<br/>class = 0.0>, fillcolor="#e58139"] ;
146 -> 148 ;
149 [label=<DepTime &le; -1.517<br/>gini = 0.005<br/>samples = 1834<br/>value = [1829, 5]<br/>class = 0.0>, fillcolor="#e5813a"] ;
123 -> 149 ;
150 [label=<DayofMonth &le; 30.5<br/>gini = 0.003<br/>samples = 1746<br/>value = [1743, 3]<br/>class = 0.0>, fillcolor="#e58139"] ;
149 -> 150 ;
151 [label=<Distance &le; -1.057<br/>gini = 0.002<br/>samples = 1719<br/>value = [1717, 2]<br/>class = 0.0>, fillcolor="#e58139"] ;
150 -> 151 ;
152 [label=<Distance &le; -1.061<br/>gini = 0.019<br/>samples = 102<br/>value = [101, 1]<br/>class = 0.0>, fillcolor="#e5823b"] ;
151 -> 152 ;
153 [label=<gini = 0.0<br/>samples = 100<br/>value = [100, 0]<br/>class = 0.0>, fillcolor="#e58139"] ;
152 -> 153 ;
154 [label=<DepTime &le; -1.703<br/>gini = 0.5<br/>samples = 2<br/>value = [1, 1]<br/>class = 0.0>, fillcolor="#ffffff"] ;
152 -> 154 ;
155 [label=<gini = 0.0<br/>samples = 1<br/>value = [1, 0]<br/>class = 0.0>, fillcolor="#e58139"] ;
154 -> 155 ;
156 [label=<gini = 0.0<br/>samples = 1<br/>value = [0, 1]<br/>class = 1.0>, fillcolor="#399de5"] ;
154 -> 156 ;
157 [label=<flight &le; 961.0<br/>gini = 0.001<br/>samples = 1617<br/>value = [1616, 1]<br/>class = 0.0>, fillcolor="#e58139"] ;
151 -> 157 ;
158 [label=<flight &le; 952.5<br/>gini = 0.006<br/>samples = 353<br/>value = [352, 1]<br/>class = 0.0>, fillcolor="#e5813a"] ;
157 -> 158 ;
159 [label=<gini = 0.0<br/>samples = 347<br/>value = [347, 0]<br/>class = 0.0>, fillcolor="#e58139"] ;
158 -> 159 ;
160 [label=<DepTime &le; -1.6<br/>gini = 0.278<br/>samples = 6<br/>value = [5, 1]<br/>class = 0.0>, fillcolor="#ea9a61"] ;
158 -> 160 ;
161 [label=<gini = 0.0<br/>samples = 5<br/>value = [5, 0]<br/>class = 0.0>, fillcolor="#e58139"] ;
160 -> 161 ;
162 [label=<gini = 0.0<br/>samples = 1<br/>value = [0, 1]<br/>class = 1.0>, fillcolor="#399de5"] ;
160 -> 162 ;
163 [label=<gini = 0.0<br/>samples = 1264<br/>value = [1264, 0]<br/>class = 0.0>, fillcolor="#e58139"] ;
157 -> 163 ;
164 [label=<Dest &le; 77.5<br/>gini = 0.071<br/>samples = 27<br/>value = [26, 1]<br/>class = 0.0>, fillcolor="#e68641"] ;
150 -> 164 ;
165 [label=<DayOfWeek &le; 3.0<br/>gini = 0.32<br/>samples = 5<br/>value = [4, 1]<br/>class = 0.0>, fillcolor="#eca06a"] ;
164 -> 165 ;
166 [label=<gini = 0.0<br/>samples = 3<br/>value = [3, 0]<br/>class = 0.0>, fillcolor="#e58139"] ;
165 -> 166 ;
167 [label=<DepTime &le; -1.587<br/>gini = 0.5<br/>samples = 2<br/>value = [1, 1]<br/>class = 0.0>, fillcolor="#ffffff"] ;
165 -> 167 ;
168 [label=<gini = 0.0<br/>samples = 1<br/>value = [1, 0]<br/>class = 0.0>, fillcolor="#e58139"] ;
167 -> 168 ;
169 [label=<gini = 0.0<br/>samples = 1<br/>value = [0, 1]<br/>class = 1.0>, fillcolor="#399de5"] ;
167 -> 169 ;
170 [label=<gini = 0.0<br/>samples = 22<br/>value = [22, 0]<br/>class = 0.0>, fillcolor="#e58139"] ;
164 -> 170 ;
171 [label=<DayOfWeek &le; 5.5<br/>gini = 0.044<br/>samples = 88<br/>value = [86, 2]<br/>class = 0.0>, fillcolor="#e6843e"] ;
149 -> 171 ;
172 [label=<gini = 0.0<br/>samples = 71<br/>value = [71, 0]<br/>class = 0.0>, fillcolor="#e58139"] ;
171 -> 172 ;
173 [label=<Month &le; 9.5<br/>gini = 0.208<br/>samples = 17<br/>value = [15, 2]<br/>class = 0.0>, fillcolor="#e89253"] ;
171 -> 173 ;
174 [label=<gini = 0.0<br/>samples = 14<br/>value = [14, 0]<br/>class = 0.0>, fillcolor="#e58139"] ;
173 -> 174 ;
175 [label=<Origin &le; 119.5<br/>gini = 0.444<br/>samples = 3<br/>value = [1, 2]<br/>class = 1.0>, fillcolor="#9ccef2"] ;
173 -> 175 ;
176 [label=<gini = 0.0<br/>samples = 1<br/>value = [1, 0]<br/>class = 0.0>, fillcolor="#e58139"] ;
175 -> 176 ;
177 [label=<gini = 0.0<br/>samples = 2<br/>value = [0, 2]<br/>class = 1.0>, fillcolor="#399de5"] ;
175 -> 177 ;
178 [label=<flight &le; 4428.0<br/>gini = 0.037<br/>samples = 264<br/>value = [259, 5]<br/>class = 0.0>, fillcolor="#e6833d"] ;
122 -> 178 ;
179 [label=<Month &le; 6.5<br/>gini = 0.469<br/>samples = 8<br/>value = [5, 3]<br/>class = 0.0>, fillcolor="#f5cdb0"] ;
178 -> 179 ;
180 [label=<gini = 0.0<br/>samples = 5<br/>value = [5, 0]<br/>class = 0.0>, fillcolor="#e58139"] ;
179 -> 180 ;
181 [label=<gini = 0.0<br/>samples = 3<br/>value = [0, 3]<br/>class = 1.0>, fillcolor="#399de5"] ;
179 -> 181 ;
182 [label=<DepTime &le; -1.798<br/>gini = 0.016<br/>samples = 256<br/>value = [254, 2]<br/>class = 0.0>, fillcolor="#e5823b"] ;
178 -> 182 ;
183 [label=<Distance &le; 0.841<br/>gini = 0.5<br/>samples = 2<br/>value = [1, 1]<br/>class = 0.0>, fillcolor="#ffffff"] ;
182 -> 183 ;
184 [label=<gini = 0.0<br/>samples = 1<br/>value = [1, 0]<br/>class = 0.0>, fillcolor="#e58139"] ;
183 -> 184 ;
185 [label=<gini = 0.0<br/>samples = 1<br/>value = [0, 1]<br/>class = 1.0>, fillcolor="#399de5"] ;
183 -> 185 ;
186 [label=<Distance &le; -0.941<br/>gini = 0.008<br/>samples = 254<br/>value = [253, 1]<br/>class = 0.0>, fillcolor="#e5813a"] ;
182 -> 186 ;
187 [label=<Distance &le; -0.95<br/>gini = 0.095<br/>samples = 20<br/>value = [19, 1]<br/>class = 0.0>, fillcolor="#e68843"] ;
186 -> 187 ;
188 [label=<gini = 0.0<br/>samples = 17<br/>value = [17, 0]<br/>class = 0.0>, fillcolor="#e58139"] ;
187 -> 188 ;
189 [label=<DayOfWeek &le; 3.5<br/>gini = 0.444<br/>samples = 3<br/>value = [2, 1]<br/>class = 0.0>, fillcolor="#f2c09c"] ;
187 -> 189 ;
190 [label=<gini = 0.0<br/>samples = 2<br/>value = [2, 0]<br/>class = 0.0>, fillcolor="#e58139"] ;
189 -> 190 ;
191 [label=<gini = 0.0<br/>samples = 1<br/>value = [0, 1]<br/>class = 1.0>, fillcolor="#399de5"] ;
189 -> 191 ;
192 [label=<gini = 0.0<br/>samples = 234<br/>value = [234, 0]<br/>class = 0.0>, fillcolor="#e58139"] ;
186 -> 192 ;
193 [label=<Month &le; 11.5<br/>gini = 0.058<br/>samples = 4574<br/>value = [4438, 136]<br/>class = 0.0>, fillcolor="#e6853f"] ;
121 -> 193 ;
194 [label=<DepTime &le; -1.508<br/>gini = 0.053<br/>samples = 4211<br/>value = [4096, 115]<br/>class = 0.0>, fillcolor="#e6853f"] ;
193 -> 194 ;
195 [label=<flight &le; 89.0<br/>gini = 0.134<br/>samples = 138<br/>value = [128, 10]<br/>class = 0.0>, fillcolor="#e78b48"] ;
194 -> 195 ;
196 [label=<flight &le; 73.5<br/>gini = 0.5<br/>samples = 2<br/>value = [1, 1]<br/>class = 0.0>, fillcolor="#ffffff"] ;
195 -> 196 ;
197 [label=<gini = 0.0<br/>samples = 1<br/>value = [1, 0]<br/>class = 0.0>, fillcolor="#e58139"] ;
196 -> 197 ;
198 [label=<gini = 0.0<br/>samples = 1<br/>value = [0, 1]<br/>class = 1.0>, fillcolor="#399de5"] ;
196 -> 198 ;
199 [label=<Month &le; 10.5<br/>gini = 0.124<br/>samples = 136<br/>value = [127, 9]<br/>class = 0.0>, fillcolor="#e78a47"] ;
195 -> 199 ;
200 [label=<DepTime &le; -1.511<br/>gini = 0.094<br/>samples = 122<br/>value = [116, 6]<br/>class = 0.0>, fillcolor="#e68843"] ;
199 -> 200 ;
201 [label=<Month &le; 8.5<br/>gini = 0.044<br/>samples = 89<br/>value = [87, 2]<br/>class = 0.0>, fillcolor="#e6843e"] ;
200 -> 201 ;
202 [label=<gini = 0.0<br/>samples = 74<br/>value = [74, 0]<br/>class = 0.0>, fillcolor="#e58139"] ;
201 -> 202 ;
203 [label=<DepTime &le; -1.513<br/>gini = 0.231<br/>samples = 15<br/>value = [13, 2]<br/>class = 0.0>, fillcolor="#e99457"] ;
201 -> 203 ;
204 [label=<DayOfWeek &le; 4.5<br/>gini = 0.48<br/>samples = 5<br/>value = [3, 2]<br/>class = 0.0>, fillcolor="#f6d5bd"] ;
203 -> 204 ;
205 [label=<gini = 0.0<br/>samples = 3<br/>value = [3, 0]<br/>class = 0.0>, fillcolor="#e58139"] ;
204 -> 205 ;
206 [label=<gini = 0.0<br/>samples = 2<br/>value = [0, 2]<br/>class = 1.0>, fillcolor="#399de5"] ;
204 -> 206 ;
207 [label=<gini = 0.0<br/>samples = 10<br/>value = [10, 0]<br/>class = 0.0>, fillcolor="#e58139"] ;
203 -> 207 ;
208 [label=<Distance &le; 1.179<br/>gini = 0.213<br/>samples = 33<br/>value = [29, 4]<br/>class = 0.0>, fillcolor="#e99254"] ;
200 -> 208 ;
209 [label=<DayOfWeek &le; 2.5<br/>gini = 0.17<br/>samples = 32<br/>value = [29, 3]<br/>class = 0.0>, fillcolor="#e88e4d"] ;
208 -> 209 ;
210 [label=<DayofMonth &le; 22.5<br/>gini = 0.444<br/>samples = 6<br/>value = [4, 2]<br/>class = 0.0>, fillcolor="#f2c09c"] ;
209 -> 210 ;
211 [label=<Month &le; 6.5<br/>gini = 0.444<br/>samples = 3<br/>value = [1, 2]<br/>class = 1.0>, fillcolor="#9ccef2"] ;
210 -> 211 ;
212 [label=<gini = 0.0<br/>samples = 2<br/>value = [0, 2]<br/>class = 1.0>, fillcolor="#399de5"] ;
211 -> 212 ;
213 [label=<gini = 0.0<br/>samples = 1<br/>value = [1, 0]<br/>class = 0.0>, fillcolor="#e58139"] ;
211 -> 213 ;
214 [label=<gini = 0.0<br/>samples = 3<br/>value = [3, 0]<br/>class = 0.0>, fillcolor="#e58139"] ;
210 -> 214 ;
215 [label=<DayofMonth &le; 20.5<br/>gini = 0.074<br/>samples = 26<br/>value = [25, 1]<br/>class = 0.0>, fillcolor="#e68641"] ;
209 -> 215 ;
216 [label=<gini = 0.0<br/>samples = 19<br/>value = [19, 0]<br/>class = 0.0>, fillcolor="#e58139"] ;
215 -> 216 ;
217 [label=<DayofMonth &le; 21.5<br/>gini = 0.245<br/>samples = 7<br/>value = [6, 1]<br/>class = 0.0>, fillcolor="#e9965a"] ;
215 -> 217 ;
218 [label=<Origin &le; 228.5<br/>gini = 0.5<br/>samples = 2<br/>value = [1, 1]<br/>class = 0.0>, fillcolor="#ffffff"] ;
217 -> 218 ;
219 [label=<gini = 0.0<br/>samples = 1<br/>value = [0, 1]<br/>class = 1.0>, fillcolor="#399de5"] ;
218 -> 219 ;
220 [label=<gini = 0.0<br/>samples = 1<br/>value = [1, 0]<br/>class = 0.0>, fillcolor="#e58139"] ;
218 -> 220 ;
221 [label=<gini = 0.0<br/>samples = 5<br/>value = [5, 0]<br/>class = 0.0>, fillcolor="#e58139"] ;
217 -> 221 ;
222 [label=<gini = 0.0<br/>samples = 1<br/>value = [0, 1]<br/>class = 1.0>, fillcolor="#399de5"] ;
208 -> 222 ;
223 [label=<UniqueCarrier &le; 17.0<br/>gini = 0.337<br/>samples = 14<br/>value = [11, 3]<br/>class = 0.0>, fillcolor="#eca36f"] ;
199 -> 223 ;
224 [label=<flight &le; 3283.0<br/>gini = 0.5<br/>samples = 6<br/>value = [3, 3]<br/>class = 0.0>, fillcolor="#ffffff"] ;
223 -> 224 ;
225 [label=<gini = 0.0<br/>samples = 3<br/>value = [0, 3]<br/>class = 1.0>, fillcolor="#399de5"] ;
224 -> 225 ;
226 [label=<gini = 0.0<br/>samples = 3<br/>value = [3, 0]<br/>class = 0.0>, fillcolor="#e58139"] ;
224 -> 226 ;
227 [label=<gini = 0.0<br/>samples = 8<br/>value = [8, 0]<br/>class = 0.0>, fillcolor="#e58139"] ;
223 -> 227 ;
228 [label=<UniqueCarrier &le; 19.5<br/>gini = 0.05<br/>samples = 4073<br/>value = [3968, 105]<br/>class = 0.0>, fillcolor="#e6843e"] ;
194 -> 228 ;
229 [label=<flight &le; 5034.5<br/>gini = 0.058<br/>samples = 3030<br/>value = [2939, 91]<br/>class = 0.0>, fillcolor="#e6853f"] ;
228 -> 229 ;
230 [label=<Distance &le; 1.189<br/>gini = 0.058<br/>samples = 3028<br/>value = [2938, 90]<br/>class = 0.0>, fillcolor="#e6853f"] ;
229 -> 230 ;
231 [label=<DepTime &le; -1.492<br/>gini = 0.065<br/>samples = 2617<br/>value = [2529, 88]<br/>class = 0.0>, fillcolor="#e68540"] ;
230 -> 231 ;
232 [label=<Origin &le; 17.5<br/>gini = 0.03<br/>samples = 457<br/>value = [450, 7]<br/>class = 0.0>, fillcolor="#e5833c"] ;
231 -> 232 ;
233 [label=<Dest &le; 148.5<br/>gini = 0.278<br/>samples = 6<br/>value = [5, 1]<br/>class = 0.0>, fillcolor="#ea9a61"] ;
232 -> 233 ;
234 [label=<gini = 0.0<br/>samples = 5<br/>value = [5, 0]<br/>class = 0.0>, fillcolor="#e58139"] ;
233 -> 234 ;
235 [label=<gini = 0.0<br/>samples = 1<br/>value = [0, 1]<br/>class = 1.0>, fillcolor="#399de5"] ;
233 -> 235 ;
236 [label=<Distance &le; -0.566<br/>gini = 0.026<br/>samples = 451<br/>value = [445, 6]<br/>class = 0.0>, fillcolor="#e5833c"] ;
232 -> 236 ;
237 [label=<Distance &le; -0.567<br/>gini = 0.072<br/>samples = 134<br/>value = [129, 5]<br/>class = 0.0>, fillcolor="#e68641"] ;
236 -> 237 ;
238 [label=<flight &le; 348.0<br/>gini = 0.059<br/>samples = 132<br/>value = [128, 4]<br/>class = 0.0>, fillcolor="#e6853f"] ;
237 -> 238 ;
239 [label=<UniqueCarrier &le; 4.5<br/>gini = 0.444<br/>samples = 3<br/>value = [2, 1]<br/>class = 0.0>, fillcolor="#f2c09c"] ;
238 -> 239 ;
240 [label=<gini = 0.0<br/>samples = 1<br/>value = [0, 1]<br/>class = 1.0>, fillcolor="#399de5"] ;
239 -> 240 ;
241 [label=<gini = 0.0<br/>samples = 2<br/>value = [2, 0]<br/>class = 0.0>, fillcolor="#e58139"] ;
239 -> 241 ;
242 [label=<DayofMonth &le; 10.5<br/>gini = 0.045<br/>samples = 129<br/>value = [126, 3]<br/>class = 0.0>, fillcolor="#e6843e"] ;
238 -> 242 ;
243 [label=<UniqueCarrier &le; 14.5<br/>gini = 0.122<br/>samples = 46<br/>value = [43, 3]<br/>class = 0.0>, fillcolor="#e78a47"] ;
242 -> 243 ;
244 [label=<gini = 0.0<br/>samples = 24<br/>value = [24, 0]<br/>class = 0.0>, fillcolor="#e58139"] ;
243 -> 244 ;
245 [label=<Origin &le; 232.0<br/>gini = 0.236<br/>samples = 22<br/>value = [19, 3]<br/>class = 0.0>, fillcolor="#e99558"] ;
243 -> 245 ;
246 [label=<flight &le; 3914.5<br/>gini = 0.375<br/>samples = 12<br/>value = [9, 3]<br/>class = 0.0>, fillcolor="#eeab7b"] ;
245 -> 246 ;
247 [label=<DepTime &le; -1.506<br/>gini = 0.298<br/>samples = 11<br/>value = [9, 2]<br/>class = 0.0>, fillcolor="#eb9d65"] ;
246 -> 247 ;
248 [label=<gini = 0.0<br/>samples = 1<br/>value = [0, 1]<br/>class = 1.0>, fillcolor="#399de5"] ;
247 -> 248 ;
249 [label=<DayofMonth &le; 9.5<br/>gini = 0.18<br/>samples = 10<br/>value = [9, 1]<br/>class = 0.0>, fillcolor="#e88f4f"] ;
247 -> 249 ;
250 [label=<gini = 0.0<br/>samples = 8<br/>value = [8, 0]<br/>class = 0.0>, fillcolor="#e58139"] ;
249 -> 250 ;
251 [label=<DayOfWeek &le; 3.5<br/>gini = 0.5<br/>samples = 2<br/>value = [1, 1]<br/>class = 0.0>, fillcolor="#ffffff"] ;
249 -> 251 ;
252 [label=<gini = 0.0<br/>samples = 1<br/>value = [1, 0]<br/>class = 0.0>, fillcolor="#e58139"] ;
251 -> 252 ;
253 [label=<gini = 0.0<br/>samples = 1<br/>value = [0, 1]<br/>class = 1.0>, fillcolor="#399de5"] ;
251 -> 253 ;
254 [label=<gini = 0.0<br/>samples = 1<br/>value = [0, 1]<br/>class = 1.0>, fillcolor="#399de5"] ;
246 -> 254 ;
255 [label=<gini = 0.0<br/>samples = 10<br/>value = [10, 0]<br/>class = 0.0>, fillcolor="#e58139"] ;
245 -> 255 ;
256 [label=<gini = 0.0<br/>samples = 83<br/>value = [83, 0]<br/>class = 0.0>, fillcolor="#e58139"] ;
242 -> 256 ;
257 [label=<Month &le; 5.5<br/>gini = 0.5<br/>samples = 2<br/>value = [1, 1]<br/>class = 0.0>, fillcolor="#ffffff"] ;
237 -> 257 ;
258 [label=<gini = 0.0<br/>samples = 1<br/>value = [0, 1]<br/>class = 1.0>, fillcolor="#399de5"] ;
257 -> 258 ;
259 [label=<gini = 0.0<br/>samples = 1<br/>value = [1, 0]<br/>class = 0.0>, fillcolor="#e58139"] ;
257 -> 259 ;
260 [label=<DayofMonth &le; 29.5<br/>gini = 0.006<br/>samples = 317<br/>value = [316, 1]<br/>class = 0.0>, fillcolor="#e5813a"] ;
236 -> 260 ;
261 [label=<gini = 0.0<br/>samples = 304<br/>value = [304, 0]<br/>class = 0.0>, fillcolor="#e58139"] ;
260 -> 261 ;
262 [label=<UniqueCarrier &le; 2.0<br/>gini = 0.142<br/>samples = 13<br/>value = [12, 1]<br/>class = 0.0>, fillcolor="#e78c49"] ;
260 -> 262 ;
263 [label=<flight &le; 3313.0<br/>gini = 0.5<br/>samples = 2<br/>value = [1, 1]<br/>class = 0.0>, fillcolor="#ffffff"] ;
262 -> 263 ;
264 [label=<gini = 0.0<br/>samples = 1<br/>value = [1, 0]<br/>class = 0.0>, fillcolor="#e58139"] ;
263 -> 264 ;
265 [label=<gini = 0.0<br/>samples = 1<br/>value = [0, 1]<br/>class = 1.0>, fillcolor="#399de5"] ;
263 -> 265 ;
266 [label=<gini = 0.0<br/>samples = 11<br/>value = [11, 0]<br/>class = 0.0>, fillcolor="#e58139"] ;
262 -> 266 ;
267 [label=<Distance &le; 0.29<br/>gini = 0.072<br/>samples = 2160<br/>value = [2079, 81]<br/>class = 0.0>, fillcolor="#e68641"] ;
231 -> 267 ;
268 [label=<DayofMonth &le; 22.5<br/>gini = 0.062<br/>samples = 1729<br/>value = [1674, 55]<br/>class = 0.0>, fillcolor="#e68540"] ;
267 -> 268 ;
269 [label=<DepTime &le; -1.439<br/>gini = 0.047<br/>samples = 1250<br/>value = [1220, 30]<br/>class = 0.0>, fillcolor="#e6843e"] ;
268 -> 269 ;
270 [label=<Dest &le; 30.5<br/>gini = 0.066<br/>samples = 703<br/>value = [679.0, 24.0]<br/>class = 0.0>, fillcolor="#e68540"] ;
269 -> 270 ;
271 [label=<UniqueCarrier &le; 7.5<br/>gini = 0.154<br/>samples = 83<br/>value = [76.0, 7.0]<br/>class = 0.0>, fillcolor="#e78d4b"] ;
270 -> 271 ;
272 [label=<Distance &le; 0.022<br/>gini = 0.33<br/>samples = 24<br/>value = [19, 5]<br/>class = 0.0>, fillcolor="#eca26d"] ;
271 -> 272 ;
273 [label=<DayOfWeek &le; 1.5<br/>gini = 0.188<br/>samples = 19<br/>value = [17, 2]<br/>class = 0.0>, fillcolor="#e89050"] ;
272 -> 273 ;
274 [label=<gini = 0.0<br/>samples = 1<br/>value = [0, 1]<br/>class = 1.0>, fillcolor="#399de5"] ;
273 -> 274 ;
275 [label=<flight &le; 4047.5<br/>gini = 0.105<br/>samples = 18<br/>value = [17, 1]<br/>class = 0.0>, fillcolor="#e78845"] ;
273 -> 275 ;
276 [label=<gini = 0.0<br/>samples = 15<br/>value = [15, 0]<br/>class = 0.0>, fillcolor="#e58139"] ;
275 -> 276 ;
277 [label=<Origin &le; 245.0<br/>gini = 0.444<br/>samples = 3<br/>value = [2, 1]<br/>class = 0.0>, fillcolor="#f2c09c"] ;
275 -> 277 ;
278 [label=<gini = 0.0<br/>samples = 1<br/>value = [0, 1]<br/>class = 1.0>, fillcolor="#399de5"] ;
277 -> 278 ;
279 [label=<gini = 0.0<br/>samples = 2<br/>value = [2, 0]<br/>class = 0.0>, fillcolor="#e58139"] ;
277 -> 279 ;
280 [label=<Month &le; 4.5<br/>gini = 0.48<br/>samples = 5<br/>value = [2, 3]<br/>class = 1.0>, fillcolor="#bddef6"] ;
272 -> 280 ;
281 [label=<gini = 0.0<br/>samples = 2<br/>value = [0, 2]<br/>class = 1.0>, fillcolor="#399de5"] ;
280 -> 281 ;
282 [label=<Origin &le; 61.5<br/>gini = 0.444<br/>samples = 3<br/>value = [2, 1]<br/>class = 0.0>, fillcolor="#f2c09c"] ;
280 -> 282 ;
283 [label=<gini = 0.0<br/>samples = 1<br/>value = [0, 1]<br/>class = 1.0>, fillcolor="#399de5"] ;
282 -> 283 ;
284 [label=<gini = 0.0<br/>samples = 2<br/>value = [2, 0]<br/>class = 0.0>, fillcolor="#e58139"] ;
282 -> 284 ;
285 [label=<Dest &le; 22.0<br/>gini = 0.065<br/>samples = 59<br/>value = [57, 2]<br/>class = 0.0>, fillcolor="#e68540"] ;
271 -> 285 ;
286 [label=<Month &le; 10.5<br/>gini = 0.034<br/>samples = 57<br/>value = [56, 1]<br/>class = 0.0>, fillcolor="#e5833d"] ;
285 -> 286 ;
287 [label=<gini = 0.0<br/>samples = 49<br/>value = [49, 0]<br/>class = 0.0>, fillcolor="#e58139"] ;
286 -> 287 ;
288 [label=<Origin &le; 52.0<br/>gini = 0.219<br/>samples = 8<br/>value = [7, 1]<br/>class = 0.0>, fillcolor="#e99355"] ;
286 -> 288 ;
289 [label=<gini = 0.0<br/>samples = 1<br/>value = [0, 1]<br/>class = 1.0>, fillcolor="#399de5"] ;
288 -> 289 ;
290 [label=<gini = 0.0<br/>samples = 7<br/>value = [7, 0]<br/>class = 0.0>, fillcolor="#e58139"] ;
288 -> 290 ;
291 [label=<Distance &le; -0.637<br/>gini = 0.5<br/>samples = 2<br/>value = [1, 1]<br/>class = 0.0>, fillcolor="#ffffff"] ;
285 -> 291 ;
292 [label=<gini = 0.0<br/>samples = 1<br/>value = [0, 1]<br/>class = 1.0>, fillcolor="#399de5"] ;
291 -> 292 ;
293 [label=<gini = 0.0<br/>samples = 1<br/>value = [1, 0]<br/>class = 0.0>, fillcolor="#e58139"] ;
291 -> 293 ;
294 [label=<flight &le; 4998.0<br/>gini = 0.053<br/>samples = 620<br/>value = [603, 17]<br/>class = 0.0>, fillcolor="#e6853f"] ;
270 -> 294 ;
295 [label=<flight &le; 4096.5<br/>gini = 0.051<br/>samples = 617<br/>value = [601, 16]<br/>class = 0.0>, fillcolor="#e6843e"] ;
294 -> 295 ;
296 [label=<DayofMonth &le; 1.5<br/>gini = 0.037<br/>samples = 477<br/>value = [468, 9]<br/>class = 0.0>, fillcolor="#e6833d"] ;
295 -> 296 ;
297 [label=<Distance &le; -1.004<br/>gini = 0.18<br/>samples = 20<br/>value = [18, 2]<br/>class = 0.0>, fillcolor="#e88f4f"] ;
296 -> 297 ;
298 [label=<gini = 0.0<br/>samples = 1<br/>value = [0, 1]<br/>class = 1.0>, fillcolor="#399de5"] ;
297 -> 298 ;
299 [label=<DepTime &le; -1.446<br/>gini = 0.1<br/>samples = 19<br/>value = [18, 1]<br/>class = 0.0>, fillcolor="#e68844"] ;
297 -> 299 ;
300 [label=<gini = 0.0<br/>samples = 16<br/>value = [16, 0]<br/>class = 0.0>, fillcolor="#e58139"] ;
299 -> 300 ;
301 [label=<Distance &le; -0.674<br/>gini = 0.444<br/>samples = 3<br/>value = [2, 1]<br/>class = 0.0>, fillcolor="#f2c09c"] ;
299 -> 301 ;
302 [label=<gini = 0.0<br/>samples = 1<br/>value = [0, 1]<br/>class = 1.0>, fillcolor="#399de5"] ;
301 -> 302 ;
303 [label=<gini = 0.0<br/>samples = 2<br/>value = [2, 0]<br/>class = 0.0>, fillcolor="#e58139"] ;
301 -> 303 ;
304 [label=<Distance &le; -1.117<br/>gini = 0.03<br/>samples = 457<br/>value = [450, 7]<br/>class = 0.0>, fillcolor="#e5833c"] ;
296 -> 304 ;
305 [label=<Month &le; 8.0<br/>gini = 0.219<br/>samples = 8<br/>value = [7, 1]<br/>class = 0.0>, fillcolor="#e99355"] ;
304 -> 305 ;
306 [label=<gini = 0.0<br/>samples = 6<br/>value = [6, 0]<br/>class = 0.0>, fillcolor="#e58139"] ;
305 -> 306 ;
307 [label=<flight &le; 1321.0<br/>gini = 0.5<br/>samples = 2<br/>value = [1, 1]<br/>class = 0.0>, fillcolor="#ffffff"] ;
305 -> 307 ;
308 [label=<gini = 0.0<br/>samples = 1<br/>value = [0, 1]<br/>class = 1.0>, fillcolor="#399de5"] ;
307 -> 308 ;
309 [label=<gini = 0.0<br/>samples = 1<br/>value = [1, 0]<br/>class = 0.0>, fillcolor="#e58139"] ;
307 -> 309 ;
310 [label=<DayofMonth &le; 21.5<br/>gini = 0.026<br/>samples = 449<br/>value = [443, 6]<br/>class = 0.0>, fillcolor="#e5833c"] ;
304 -> 310 ;
311 [label=<UniqueCarrier &le; 1.5<br/>gini = 0.019<br/>samples = 418<br/>value = [414, 4]<br/>class = 0.0>, fillcolor="#e5823b"] ;
310 -> 311 ;
312 [label=<DayofMonth &le; 3.5<br/>gini = 0.091<br/>samples = 42<br/>value = [40, 2]<br/>class = 0.0>, fillcolor="#e68743"] ;
311 -> 312 ;
313 [label=<DayOfWeek &le; 2.5<br/>gini = 0.375<br/>samples = 4<br/>value = [3, 1]<br/>class = 0.0>, fillcolor="#eeab7b"] ;
312 -> 313 ;
314 [label=<gini = 0.0<br/>samples = 1<br/>value = [0, 1]<br/>class = 1.0>, fillcolor="#399de5"] ;
313 -> 314 ;
315 [label=<gini = 0.0<br/>samples = 3<br/>value = [3, 0]<br/>class = 0.0>, fillcolor="#e58139"] ;
313 -> 315 ;
316 [label=<DayOfWeek &le; 6.5<br/>gini = 0.051<br/>samples = 38<br/>value = [37, 1]<br/>class = 0.0>, fillcolor="#e6843e"] ;
312 -> 316 ;
317 [label=<gini = 0.0<br/>samples = 33<br/>value = [33, 0]<br/>class = 0.0>, fillcolor="#e58139"] ;
316 -> 317 ;
318 [label=<DayofMonth &le; 8.5<br/>gini = 0.32<br/>samples = 5<br/>value = [4, 1]<br/>class = 0.0>, fillcolor="#eca06a"] ;
316 -> 318 ;
319 [label=<flight &le; 3487.0<br/>gini = 0.5<br/>samples = 2<br/>value = [1, 1]<br/>class = 0.0>, fillcolor="#ffffff"] ;
318 -> 319 ;
320 [label=<gini = 0.0<br/>samples = 1<br/>value = [0, 1]<br/>class = 1.0>, fillcolor="#399de5"] ;
319 -> 320 ;
321 [label=<gini = 0.0<br/>samples = 1<br/>value = [1, 0]<br/>class = 0.0>, fillcolor="#e58139"] ;
319 -> 321 ;
322 [label=<gini = 0.0<br/>samples = 3<br/>value = [3, 0]<br/>class = 0.0>, fillcolor="#e58139"] ;
318 -> 322 ;
323 [label=<Distance &le; -0.901<br/>gini = 0.011<br/>samples = 376<br/>value = [374, 2]<br/>class = 0.0>, fillcolor="#e5823a"] ;
311 -> 323 ;
324 [label=<Distance &le; -0.904<br/>gini = 0.058<br/>samples = 67<br/>value = [65, 2]<br/>class = 0.0>, fillcolor="#e6853f"] ;
323 -> 324 ;
325 [label=<Dest &le; 72.5<br/>gini = 0.03<br/>samples = 66<br/>value = [65, 1]<br/>class = 0.0>, fillcolor="#e5833c"] ;
324 -> 325 ;
326 [label=<DayofMonth &le; 12.0<br/>gini = 0.5<br/>samples = 2<br/>value = [1, 1]<br/>class = 0.0>, fillcolor="#ffffff"] ;
325 -> 326 ;
327 [label=<gini = 0.0<br/>samples = 1<br/>value = [1, 0]<br/>class = 0.0>, fillcolor="#e58139"] ;
326 -> 327 ;
328 [label=<gini = 0.0<br/>samples = 1<br/>value = [0, 1]<br/>class = 1.0>, fillcolor="#399de5"] ;
326 -> 328 ;
329 [label=<gini = 0.0<br/>samples = 64<br/>value = [64, 0]<br/>class = 0.0>, fillcolor="#e58139"] ;
325 -> 329 ;
330 [label=<gini = 0.0<br/>samples = 1<br/>value = [0, 1]<br/>class = 1.0>, fillcolor="#399de5"] ;
324 -> 330 ;
331 [label=<gini = 0.0<br/>samples = 309<br/>value = [309, 0]<br/>class = 0.0>, fillcolor="#e58139"] ;
323 -> 331 ;
332 [label=<Origin &le; 220.5<br/>gini = 0.121<br/>samples = 31<br/>value = [29, 2]<br/>class = 0.0>, fillcolor="#e78a47"] ;
310 -> 332 ;
333 [label=<DepTime &le; -1.489<br/>gini = 0.064<br/>samples = 30<br/>value = [29, 1]<br/>class = 0.0>, fillcolor="#e68540"] ;
332 -> 333 ;
334 [label=<gini = 0.0<br/>samples = 1<br/>value = [0, 1]<br/>class = 1.0>, fillcolor="#399de5"] ;
333 -> 334 ;
335 [label=<gini = 0.0<br/>samples = 29<br/>value = [29, 0]<br/>class = 0.0>, fillcolor="#e58139"] ;
333 -> 335 ;
336 [label=<gini = 0.0<br/>samples = 1<br/>value = [0, 1]<br/>class = 1.0>, fillcolor="#399de5"] ;
332 -> 336 ;
337 [label=<flight &le; 4108.0<br/>gini = 0.095<br/>samples = 140<br/>value = [133, 7]<br/>class = 0.0>, fillcolor="#e68843"] ;
295 -> 337 ;
338 [label=<DayOfWeek &le; 4.5<br/>gini = 0.444<br/>samples = 6<br/>value = [4, 2]<br/>class = 0.0>, fillcolor="#f2c09c"] ;
337 -> 338 ;
339 [label=<gini = 0.0<br/>samples = 3<br/>value = [3, 0]<br/>class = 0.0>, fillcolor="#e58139"] ;
338 -> 339 ;
340 [label=<DayofMonth &le; 19.0<br/>gini = 0.444<br/>samples = 3<br/>value = [1, 2]<br/>class = 1.0>, fillcolor="#9ccef2"] ;
338 -> 340 ;
341 [label=<gini = 0.0<br/>samples = 2<br/>value = [0, 2]<br/>class = 1.0>, fillcolor="#399de5"] ;
340 -> 341 ;
342 [label=<gini = 0.0<br/>samples = 1<br/>value = [1, 0]<br/>class = 0.0>, fillcolor="#e58139"] ;
340 -> 342 ;
343 [label=<DepTime &le; -1.442<br/>gini = 0.072<br/>samples = 134<br/>value = [129, 5]<br/>class = 0.0>, fillcolor="#e68641"] ;
337 -> 343 ;
344 [label=<DayOfWeek &le; 2.5<br/>gini = 0.061<br/>samples = 128<br/>value = [124, 4]<br/>class = 0.0>, fillcolor="#e6853f"] ;
343 -> 344 ;
345 [label=<UniqueCarrier &le; 18.5<br/>gini = 0.142<br/>samples = 39<br/>value = [36, 3]<br/>class = 0.0>, fillcolor="#e78c49"] ;
344 -> 345 ;
346 [label=<flight &le; 4200.0<br/>gini = 0.105<br/>samples = 36<br/>value = [34, 2]<br/>class = 0.0>, fillcolor="#e78845"] ;
345 -> 346 ;
347 [label=<DayofMonth &le; 12.5<br/>gini = 0.444<br/>samples = 3<br/>value = [2, 1]<br/>class = 0.0>, fillcolor="#f2c09c"] ;
346 -> 347 ;
348 [label=<gini = 0.0<br/>samples = 1<br/>value = [0, 1]<br/>class = 1.0>, fillcolor="#399de5"] ;
347 -> 348 ;
349 [label=<gini = 0.0<br/>samples = 2<br/>value = [2, 0]<br/>class = 0.0>, fillcolor="#e58139"] ;
347 -> 349 ;
350 [label=<Dest &le; 265.5<br/>gini = 0.059<br/>samples = 33<br/>value = [32, 1]<br/>class = 0.0>, fillcolor="#e6853f"] ;
346 -> 350 ;
351 [label=<gini = 0.0<br/>samples = 26<br/>value = [26, 0]<br/>class = 0.0>, fillcolor="#e58139"] ;
350 -> 351 ;
352 [label=<UniqueCarrier &le; 7.5<br/>gini = 0.245<br/>samples = 7<br/>value = [6, 1]<br/>class = 0.0>, fillcolor="#e9965a"] ;
350 -> 352 ;
353 [label=<gini = 0.0<br/>samples = 5<br/>value = [5, 0]<br/>class = 0.0>, fillcolor="#e58139"] ;
352 -> 353 ;
354 [label=<Month &le; 7.5<br/>gini = 0.5<br/>samples = 2<br/>value = [1, 1]<br/>class = 0.0>, fillcolor="#ffffff"] ;
352 -> 354 ;
355 [label=<gini = 0.0<br/>samples = 1<br/>value = [1, 0]<br/>class = 0.0>, fillcolor="#e58139"] ;
354 -> 355 ;
356 [label=<gini = 0.0<br/>samples = 1<br/>value = [0, 1]<br/>class = 1.0>, fillcolor="#399de5"] ;
354 -> 356 ;
357 [label=<DepTime &le; -1.466<br/>gini = 0.444<br/>samples = 3<br/>value = [2, 1]<br/>class = 0.0>, fillcolor="#f2c09c"] ;
345 -> 357 ;
358 [label=<gini = 0.0<br/>samples = 1<br/>value = [0, 1]<br/>class = 1.0>, fillcolor="#399de5"] ;
357 -> 358 ;
359 [label=<gini = 0.0<br/>samples = 2<br/>value = [2, 0]<br/>class = 0.0>, fillcolor="#e58139"] ;
357 -> 359 ;
360 [label=<UniqueCarrier &le; 17.0<br/>gini = 0.022<br/>samples = 89<br/>value = [88, 1]<br/>class = 0.0>, fillcolor="#e5823b"] ;
344 -> 360 ;
361 [label=<gini = 0.0<br/>samples = 73<br/>value = [73, 0]<br/>class = 0.0>, fillcolor="#e58139"] ;
360 -> 361 ;
362 [label=<Month &le; 7.0<br/>gini = 0.117<br/>samples = 16<br/>value = [15, 1]<br/>class = 0.0>, fillcolor="#e78946"] ;
360 -> 362 ;
363 [label=<gini = 0.0<br/>samples = 13<br/>value = [13, 0]<br/>class = 0.0>, fillcolor="#e58139"] ;
362 -> 363 ;
364 [label=<Month &le; 8.5<br/>gini = 0.444<br/>samples = 3<br/>value = [2, 1]<br/>class = 0.0>, fillcolor="#f2c09c"] ;
362 -> 364 ;
365 [label=<gini = 0.0<br/>samples = 1<br/>value = [0, 1]<br/>class = 1.0>, fillcolor="#399de5"] ;
364 -> 365 ;
366 [label=<gini = 0.0<br/>samples = 2<br/>value = [2, 0]<br/>class = 0.0>, fillcolor="#e58139"] ;
364 -> 366 ;
367 [label=<Month &le; 1.5<br/>gini = 0.278<br/>samples = 6<br/>value = [5, 1]<br/>class = 0.0>, fillcolor="#ea9a61"] ;
343 -> 367 ;
368 [label=<gini = 0.0<br/>samples = 1<br/>value = [0, 1]<br/>class = 1.0>, fillcolor="#399de5"] ;
367 -> 368 ;
369 [label=<gini = 0.0<br/>samples = 5<br/>value = [5, 0]<br/>class = 0.0>, fillcolor="#e58139"] ;
367 -> 369 ;
370 [label=<DayofMonth &le; 7.0<br/>gini = 0.444<br/>samples = 3<br/>value = [2, 1]<br/>class = 0.0>, fillcolor="#f2c09c"] ;
294 -> 370 ;
371 [label=<gini = 0.0<br/>samples = 1<br/>value = [0, 1]<br/>class = 1.0>, fillcolor="#399de5"] ;
370 -> 371 ;
372 [label=<gini = 0.0<br/>samples = 2<br/>value = [2, 0]<br/>class = 0.0>, fillcolor="#e58139"] ;
370 -> 372 ;
373 [label=<Distance &le; -1.131<br/>gini = 0.022<br/>samples = 547<br/>value = [541, 6]<br/>class = 0.0>, fillcolor="#e5823b"] ;
269 -> 373 ;
374 [label=<Dest &le; 46.5<br/>gini = 0.245<br/>samples = 7<br/>value = [6, 1]<br/>class = 0.0>, fillcolor="#e9965a"] ;
373 -> 374 ;
375 [label=<gini = 0.0<br/>samples = 1<br/>value = [0, 1]<br/>class = 1.0>, fillcolor="#399de5"] ;
374 -> 375 ;
376 [label=<gini = 0.0<br/>samples = 6<br/>value = [6, 0]<br/>class = 0.0>, fillcolor="#e58139"] ;
374 -> 376 ;
377 [label=<Month &le; 5.5<br/>gini = 0.018<br/>samples = 540<br/>value = [535, 5]<br/>class = 0.0>, fillcolor="#e5823b"] ;
373 -> 377 ;
378 [label=<DayofMonth &le; 12.5<br/>gini = 0.041<br/>samples = 237<br/>value = [232, 5]<br/>class = 0.0>, fillcolor="#e6843d"] ;
377 -> 378 ;
379 [label=<gini = 0.0<br/>samples = 134<br/>value = [134, 0]<br/>class = 0.0>, fillcolor="#e58139"] ;
378 -> 379 ;
380 [label=<DayOfWeek &le; 2.5<br/>gini = 0.092<br/>samples = 103<br/>value = [98, 5]<br/>class = 0.0>, fillcolor="#e68743"] ;
378 -> 380 ;
381 [label=<UniqueCarrier &le; 18.5<br/>gini = 0.227<br/>samples = 23<br/>value = [20, 3]<br/>class = 0.0>, fillcolor="#e99457"] ;
380 -> 381 ;
382 [label=<Distance &le; -0.312<br/>gini = 0.165<br/>samples = 22<br/>value = [20, 2]<br/>class = 0.0>, fillcolor="#e88e4d"] ;
381 -> 382 ;
383 [label=<gini = 0.0<br/>samples = 11<br/>value = [11, 0]<br/>class = 0.0>, fillcolor="#e58139"] ;
382 -> 383 ;
384 [label=<Month &le; 4.5<br/>gini = 0.298<br/>samples = 11<br/>value = [9, 2]<br/>class = 0.0>, fillcolor="#eb9d65"] ;
382 -> 384 ;
385 [label=<Distance &le; -0.276<br/>gini = 0.18<br/>samples = 10<br/>value = [9, 1]<br/>class = 0.0>, fillcolor="#e88f4f"] ;
384 -> 385 ;
386 [label=<gini = 0.0<br/>samples = 1<br/>value = [0, 1]<br/>class = 1.0>, fillcolor="#399de5"] ;
385 -> 386 ;
387 [label=<gini = 0.0<br/>samples = 9<br/>value = [9, 0]<br/>class = 0.0>, fillcolor="#e58139"] ;
385 -> 387 ;
388 [label=<gini = 0.0<br/>samples = 1<br/>value = [0, 1]<br/>class = 1.0>, fillcolor="#399de5"] ;
384 -> 388 ;
389 [label=<gini = 0.0<br/>samples = 1<br/>value = [0, 1]<br/>class = 1.0>, fillcolor="#399de5"] ;
381 -> 389 ;
390 [label=<DepTime &le; -1.333<br/>gini = 0.049<br/>samples = 80<br/>value = [78, 2]<br/>class = 0.0>, fillcolor="#e6843e"] ;
380 -> 390 ;
391 [label=<gini = 0.0<br/>samples = 69<br/>value = [69, 0]<br/>class = 0.0>, fillcolor="#e58139"] ;
390 -> 391 ;
392 [label=<Dest &le; 207.0<br/>gini = 0.298<br/>samples = 11<br/>value = [9, 2]<br/>class = 0.0>, fillcolor="#eb9d65"] ;
390 -> 392 ;
393 [label=<gini = 0.0<br/>samples = 8<br/>value = [8, 0]<br/>class = 0.0>, fillcolor="#e58139"] ;
392 -> 393 ;
394 [label=<flight &le; 583.5<br/>gini = 0.444<br/>samples = 3<br/>value = [1, 2]<br/>class = 1.0>, fillcolor="#9ccef2"] ;
392 -> 394 ;
395 [label=<gini = 0.0<br/>samples = 1<br/>value = [1, 0]<br/>class = 0.0>, fillcolor="#e58139"] ;
394 -> 395 ;
396 [label=<gini = 0.0<br/>samples = 2<br/>value = [0, 2]<br/>class = 1.0>, fillcolor="#399de5"] ;
394 -> 396 ;
397 [label=<gini = 0.0<br/>samples = 303<br/>value = [303, 0]<br/>class = 0.0>, fillcolor="#e58139"] ;
377 -> 397 ;
398 [label=<flight &le; 750.5<br/>gini = 0.099<br/>samples = 479<br/>value = [454, 25]<br/>class = 0.0>, fillcolor="#e68844"] ;
268 -> 398 ;
399 [label=<flight &le; 435.0<br/>gini = 0.215<br/>samples = 57<br/>value = [50, 7]<br/>class = 0.0>, fillcolor="#e99355"] ;
398 -> 399 ;
400 [label=<gini = 0.0<br/>samples = 29<br/>value = [29, 0]<br/>class = 0.0>, fillcolor="#e58139"] ;
399 -> 400 ;
401 [label=<Dest &le; 177.5<br/>gini = 0.375<br/>samples = 28<br/>value = [21, 7]<br/>class = 0.0>, fillcolor="#eeab7b"] ;
399 -> 401 ;
402 [label=<Distance &le; -0.573<br/>gini = 0.475<br/>samples = 18<br/>value = [11, 7]<br/>class = 0.0>, fillcolor="#f6d1b7"] ;
401 -> 402 ;
403 [label=<flight &le; 473.5<br/>gini = 0.298<br/>samples = 11<br/>value = [9, 2]<br/>class = 0.0>, fillcolor="#eb9d65"] ;
402 -> 403 ;
404 [label=<gini = 0.0<br/>samples = 1<br/>value = [0, 1]<br/>class = 1.0>, fillcolor="#399de5"] ;
403 -> 404 ;
405 [label=<Dest &le; 160.0<br/>gini = 0.18<br/>samples = 10<br/>value = [9, 1]<br/>class = 0.0>, fillcolor="#e88f4f"] ;
403 -> 405 ;
406 [label=<gini = 0.0<br/>samples = 9<br/>value = [9, 0]<br/>class = 0.0>, fillcolor="#e58139"] ;
405 -> 406 ;
407 [label=<gini = 0.0<br/>samples = 1<br/>value = [0, 1]<br/>class = 1.0>, fillcolor="#399de5"] ;
405 -> 407 ;
408 [label=<flight &le; 502.0<br/>gini = 0.408<br/>samples = 7<br/>value = [2, 5]<br/>class = 1.0>, fillcolor="#88c4ef"] ;
402 -> 408 ;
409 [label=<UniqueCarrier &le; 10.0<br/>gini = 0.444<br/>samples = 3<br/>value = [2, 1]<br/>class = 0.0>, fillcolor="#f2c09c"] ;
408 -> 409 ;
410 [label=<gini = 0.0<br/>samples = 1<br/>value = [0, 1]<br/>class = 1.0>, fillcolor="#399de5"] ;
409 -> 410 ;
411 [label=<gini = 0.0<br/>samples = 2<br/>value = [2, 0]<br/>class = 0.0>, fillcolor="#e58139"] ;
409 -> 411 ;
412 [label=<gini = 0.0<br/>samples = 4<br/>value = [0, 4]<br/>class = 1.0>, fillcolor="#399de5"] ;
408 -> 412 ;
413 [label=<gini = 0.0<br/>samples = 10<br/>value = [10, 0]<br/>class = 0.0>, fillcolor="#e58139"] ;
401 -> 413 ;
414 [label=<Distance &le; -1.081<br/>gini = 0.082<br/>samples = 422<br/>value = [404, 18]<br/>class = 0.0>, fillcolor="#e68742"] ;
398 -> 414 ;
415 [label=<UniqueCarrier &le; 5.0<br/>gini = 0.278<br/>samples = 12<br/>value = [10, 2]<br/>class = 0.0>, fillcolor="#ea9a61"] ;
414 -> 415 ;
416 [label=<gini = 0.0<br/>samples = 1<br/>value = [0, 1]<br/>class = 1.0>, fillcolor="#399de5"] ;
415 -> 416 ;
417 [label=<Distance &le; -1.084<br/>gini = 0.165<br/>samples = 11<br/>value = [10, 1]<br/>class = 0.0>, fillcolor="#e88e4d"] ;
415 -> 417 ;
418 [label=<gini = 0.0<br/>samples = 10<br/>value = [10, 0]<br/>class = 0.0>, fillcolor="#e58139"] ;
417 -> 418 ;
419 [label=<gini = 0.0<br/>samples = 1<br/>value = [0, 1]<br/>class = 1.0>, fillcolor="#399de5"] ;
417 -> 419 ;
420 [label=<flight &le; 1646.5<br/>gini = 0.075<br/>samples = 410<br/>value = [394, 16]<br/>class = 0.0>, fillcolor="#e68641"] ;
414 -> 420 ;
421 [label=<gini = 0.0<br/>samples = 75<br/>value = [75, 0]<br/>class = 0.0>, fillcolor="#e58139"] ;
420 -> 421 ;
422 [label=<flight &le; 1688.0<br/>gini = 0.091<br/>samples = 335<br/>value = [319, 16]<br/>class = 0.0>, fillcolor="#e68743"] ;
420 -> 422 ;
423 [label=<gini = 0.0<br/>samples = 2<br/>value = [0, 2]<br/>class = 1.0>, fillcolor="#399de5"] ;
422 -> 423 ;
424 [label=<Distance &le; 0.1<br/>gini = 0.081<br/>samples = 333<br/>value = [319.0, 14.0]<br/>class = 0.0>, fillcolor="#e68742"] ;
422 -> 424 ;
425 [label=<DayOfWeek &le; 6.5<br/>gini = 0.069<br/>samples = 308<br/>value = [297, 11]<br/>class = 0.0>, fillcolor="#e68640"] ;
424 -> 425 ;
426 [label=<DepTime &le; -1.337<br/>gini = 0.051<br/>samples = 267<br/>value = [260, 7]<br/>class = 0.0>, fillcolor="#e6843e"] ;
425 -> 426 ;
427 [label=<flight &le; 1914.0<br/>gini = 0.033<br/>samples = 242<br/>value = [238, 4]<br/>class = 0.0>, fillcolor="#e5833c"] ;
426 -> 427 ;
428 [label=<Origin &le; 119.0<br/>gini = 0.172<br/>samples = 21<br/>value = [19, 2]<br/>class = 0.0>, fillcolor="#e88e4e"] ;
427 -> 428 ;
429 [label=<Month &le; 1.5<br/>gini = 0.095<br/>samples = 20<br/>value = [19, 1]<br/>class = 0.0>, fillcolor="#e68843"] ;
428 -> 429 ;
430 [label=<DayofMonth &le; 29.0<br/>gini = 0.5<br/>samples = 2<br/>value = [1, 1]<br/>class = 0.0>, fillcolor="#ffffff"] ;
429 -> 430 ;
431 [label=<gini = 0.0<br/>samples = 1<br/>value = [0, 1]<br/>class = 1.0>, fillcolor="#399de5"] ;
430 -> 431 ;
432 [label=<gini = 0.0<br/>samples = 1<br/>value = [1, 0]<br/>class = 0.0>, fillcolor="#e58139"] ;
430 -> 432 ;
433 [label=<gini = 0.0<br/>samples = 18<br/>value = [18, 0]<br/>class = 0.0>, fillcolor="#e58139"] ;
429 -> 433 ;
434 [label=<gini = 0.0<br/>samples = 1<br/>value = [0, 1]<br/>class = 1.0>, fillcolor="#399de5"] ;
428 -> 434 ;
435 [label=<Distance &le; -0.65<br/>gini = 0.018<br/>samples = 221<br/>value = [219, 2]<br/>class = 0.0>, fillcolor="#e5823b"] ;
427 -> 435 ;
436 [label=<Distance &le; -0.655<br/>gini = 0.04<br/>samples = 98<br/>value = [96.0, 2.0]<br/>class = 0.0>, fillcolor="#e6843d"] ;
435 -> 436 ;
437 [label=<Month &le; 9.5<br/>gini = 0.02<br/>samples = 97<br/>value = [96, 1]<br/>class = 0.0>, fillcolor="#e5823b"] ;
436 -> 437 ;
438 [label=<gini = 0.0<br/>samples = 78<br/>value = [78, 0]<br/>class = 0.0>, fillcolor="#e58139"] ;
437 -> 438 ;
439 [label=<Distance &le; -0.812<br/>gini = 0.1<br/>samples = 19<br/>value = [18, 1]<br/>class = 0.0>, fillcolor="#e68844"] ;
437 -> 439 ;
440 [label=<gini = 0.0<br/>samples = 15<br/>value = [15, 0]<br/>class = 0.0>, fillcolor="#e58139"] ;
439 -> 440 ;
441 [label=<Distance &le; -0.781<br/>gini = 0.375<br/>samples = 4<br/>value = [3, 1]<br/>class = 0.0>, fillcolor="#eeab7b"] ;
439 -> 441 ;
442 [label=<gini = 0.0<br/>samples = 1<br/>value = [0, 1]<br/>class = 1.0>, fillcolor="#399de5"] ;
441 -> 442 ;
443 [label=<gini = 0.0<br/>samples = 3<br/>value = [3, 0]<br/>class = 0.0>, fillcolor="#e58139"] ;
441 -> 443 ;
444 [label=<gini = 0.0<br/>samples = 1<br/>value = [0, 1]<br/>class = 1.0>, fillcolor="#399de5"] ;
436 -> 444 ;
445 [label=<gini = 0.0<br/>samples = 123<br/>value = [123, 0]<br/>class = 0.0>, fillcolor="#e58139"] ;
435 -> 445 ;
446 [label=<flight &le; 4616.5<br/>gini = 0.211<br/>samples = 25<br/>value = [22, 3]<br/>class = 0.0>, fillcolor="#e99254"] ;
426 -> 446 ;
447 [label=<Dest &le; 41.5<br/>gini = 0.153<br/>samples = 24<br/>value = [22, 2]<br/>class = 0.0>, fillcolor="#e78c4b"] ;
446 -> 447 ;
448 [label=<gini = 0.0<br/>samples = 1<br/>value = [0, 1]<br/>class = 1.0>, fillcolor="#399de5"] ;
447 -> 448 ;
449 [label=<DayOfWeek &le; 1.5<br/>gini = 0.083<br/>samples = 23<br/>value = [22, 1]<br/>class = 0.0>, fillcolor="#e68742"] ;
447 -> 449 ;
450 [label=<Month &le; 7.0<br/>gini = 0.5<br/>samples = 2<br/>value = [1, 1]<br/>class = 0.0>, fillcolor="#ffffff"] ;
449 -> 450 ;
451 [label=<gini = 0.0<br/>samples = 1<br/>value = [1, 0]<br/>class = 0.0>, fillcolor="#e58139"] ;
450 -> 451 ;
452 [label=<gini = 0.0<br/>samples = 1<br/>value = [0, 1]<br/>class = 1.0>, fillcolor="#399de5"] ;
450 -> 452 ;
453 [label=<gini = 0.0<br/>samples = 21<br/>value = [21, 0]<br/>class = 0.0>, fillcolor="#e58139"] ;
449 -> 453 ;
454 [label=<gini = 0.0<br/>samples = 1<br/>value = [0, 1]<br/>class = 1.0>, fillcolor="#399de5"] ;
446 -> 454 ;
455 [label=<flight &le; 4236.0<br/>gini = 0.176<br/>samples = 41<br/>value = [37, 4]<br/>class = 0.0>, fillcolor="#e88f4e"] ;
425 -> 455 ;
456 [label=<DepTime &le; -1.471<br/>gini = 0.108<br/>samples = 35<br/>value = [33, 2]<br/>class = 0.0>, fillcolor="#e78945"] ;
455 -> 456 ;
457 [label=<DepTime &le; -1.477<br/>gini = 0.408<br/>samples = 7<br/>value = [5, 2]<br/>class = 0.0>, fillcolor="#efb388"] ;
456 -> 457 ;
458 [label=<gini = 0.0<br/>samples = 5<br/>value = [5, 0]<br/>class = 0.0>, fillcolor="#e58139"] ;
457 -> 458 ;
459 [label=<gini = 0.0<br/>samples = 2<br/>value = [0, 2]<br/>class = 1.0>, fillcolor="#399de5"] ;
457 -> 459 ;
460 [label=<gini = 0.0<br/>samples = 28<br/>value = [28, 0]<br/>class = 0.0>, fillcolor="#e58139"] ;
456 -> 460 ;
461 [label=<Origin &le; 262.0<br/>gini = 0.444<br/>samples = 6<br/>value = [4, 2]<br/>class = 0.0>, fillcolor="#f2c09c"] ;
455 -> 461 ;
462 [label=<gini = 0.0<br/>samples = 2<br/>value = [0, 2]<br/>class = 1.0>, fillcolor="#399de5"] ;
461 -> 462 ;
463 [label=<gini = 0.0<br/>samples = 4<br/>value = [4, 0]<br/>class = 0.0>, fillcolor="#e58139"] ;
461 -> 463 ;
464 [label=<Distance &le; 0.178<br/>gini = 0.211<br/>samples = 25<br/>value = [22, 3]<br/>class = 0.0>, fillcolor="#e99254"] ;
424 -> 464 ;
465 [label=<UniqueCarrier &le; 17.5<br/>gini = 0.5<br/>samples = 6<br/>value = [3, 3]<br/>class = 0.0>, fillcolor="#ffffff"] ;
464 -> 465 ;
466 [label=<DepTime &le; -1.454<br/>gini = 0.375<br/>samples = 4<br/>value = [1, 3]<br/>class = 1.0>, fillcolor="#7bbeee"] ;
465 -> 466 ;
467 [label=<gini = 0.0<br/>samples = 1<br/>value = [1, 0]<br/>class = 0.0>, fillcolor="#e58139"] ;
466 -> 467 ;
468 [label=<gini = 0.0<br/>samples = 3<br/>value = [0, 3]<br/>class = 1.0>, fillcolor="#399de5"] ;
466 -> 468 ;
469 [label=<gini = 0.0<br/>samples = 2<br/>value = [2, 0]<br/>class = 0.0>, fillcolor="#e58139"] ;
465 -> 469 ;
470 [label=<gini = 0.0<br/>samples = 19<br/>value = [19, 0]<br/>class = 0.0>, fillcolor="#e58139"] ;
464 -> 470 ;
471 [label=<Distance &le; 0.3<br/>gini = 0.113<br/>samples = 431<br/>value = [405, 26]<br/>class = 0.0>, fillcolor="#e78946"] ;
267 -> 471 ;
472 [label=<gini = 0.0<br/>samples = 1<br/>value = [0, 1]<br/>class = 1.0>, fillcolor="#399de5"] ;
471 -> 472 ;
473 [label=<flight &le; 3647.0<br/>gini = 0.11<br/>samples = 430<br/>value = [405, 25]<br/>class = 0.0>, fillcolor="#e78945"] ;
471 -> 473 ;
474 [label=<DepTime &le; -1.475<br/>gini = 0.072<br/>samples = 319<br/>value = [307, 12]<br/>class = 0.0>, fillcolor="#e68641"] ;
473 -> 474 ;
475 [label=<DayofMonth &le; 3.5<br/>gini = 0.188<br/>samples = 57<br/>value = [51, 6]<br/>class = 0.0>, fillcolor="#e89050"] ;
474 -> 475 ;
476 [label=<Month &le; 3.0<br/>gini = 0.444<br/>samples = 3<br/>value = [1, 2]<br/>class = 1.0>, fillcolor="#9ccef2"] ;
475 -> 476 ;
477 [label=<gini = 0.0<br/>samples = 1<br/>value = [1, 0]<br/>class = 0.0>, fillcolor="#e58139"] ;
476 -> 477 ;
478 [label=<gini = 0.0<br/>samples = 2<br/>value = [0, 2]<br/>class = 1.0>, fillcolor="#399de5"] ;
476 -> 478 ;
479 [label=<Dest &le; 271.5<br/>gini = 0.137<br/>samples = 54<br/>value = [50, 4]<br/>class = 0.0>, fillcolor="#e78b49"] ;
475 -> 479 ;
480 [label=<Distance &le; 0.491<br/>gini = 0.109<br/>samples = 52<br/>value = [49, 3]<br/>class = 0.0>, fillcolor="#e78945"] ;
479 -> 480 ;
481 [label=<DayofMonth &le; 29.5<br/>gini = 0.245<br/>samples = 21<br/>value = [18, 3]<br/>class = 0.0>, fillcolor="#e9965a"] ;
480 -> 481 ;
482 [label=<flight &le; 875.5<br/>gini = 0.18<br/>samples = 20<br/>value = [18, 2]<br/>class = 0.0>, fillcolor="#e88f4f"] ;
481 -> 482 ;
483 [label=<Distance &le; 0.397<br/>gini = 0.5<br/>samples = 2<br/>value = [1, 1]<br/>class = 0.0>, fillcolor="#ffffff"] ;
482 -> 483 ;
484 [label=<gini = 0.0<br/>samples = 1<br/>value = [0, 1]<br/>class = 1.0>, fillcolor="#399de5"] ;
483 -> 484 ;
485 [label=<gini = 0.0<br/>samples = 1<br/>value = [1, 0]<br/>class = 0.0>, fillcolor="#e58139"] ;
483 -> 485 ;
486 [label=<Dest &le; 223.5<br/>gini = 0.105<br/>samples = 18<br/>value = [17, 1]<br/>class = 0.0>, fillcolor="#e78845"] ;
482 -> 486 ;
487 [label=<gini = 0.0<br/>samples = 16<br/>value = [16, 0]<br/>class = 0.0>, fillcolor="#e58139"] ;
486 -> 487 ;
488 [label=<DayOfWeek &le; 6.5<br/>gini = 0.5<br/>samples = 2<br/>value = [1, 1]<br/>class = 0.0>, fillcolor="#ffffff"] ;
486 -> 488 ;
489 [label=<gini = 0.0<br/>samples = 1<br/>value = [0, 1]<br/>class = 1.0>, fillcolor="#399de5"] ;
488 -> 489 ;
490 [label=<gini = 0.0<br/>samples = 1<br/>value = [1, 0]<br/>class = 0.0>, fillcolor="#e58139"] ;
488 -> 490 ;
491 [label=<gini = 0.0<br/>samples = 1<br/>value = [0, 1]<br/>class = 1.0>, fillcolor="#399de5"] ;
481 -> 491 ;
492 [label=<gini = 0.0<br/>samples = 31<br/>value = [31, 0]<br/>class = 0.0>, fillcolor="#e58139"] ;
480 -> 492 ;
493 [label=<DayOfWeek &le; 4.5<br/>gini = 0.5<br/>samples = 2<br/>value = [1, 1]<br/>class = 0.0>, fillcolor="#ffffff"] ;
479 -> 493 ;
494 [label=<gini = 0.0<br/>samples = 1<br/>value = [0, 1]<br/>class = 1.0>, fillcolor="#399de5"] ;
493 -> 494 ;
495 [label=<gini = 0.0<br/>samples = 1<br/>value = [1, 0]<br/>class = 0.0>, fillcolor="#e58139"] ;
493 -> 495 ;
496 [label=<Distance &le; 0.37<br/>gini = 0.045<br/>samples = 262<br/>value = [256, 6]<br/>class = 0.0>, fillcolor="#e6843e"] ;
474 -> 496 ;
497 [label=<DayofMonth &le; 1.5<br/>gini = 0.145<br/>samples = 38<br/>value = [35, 3]<br/>class = 0.0>, fillcolor="#e78c4a"] ;
496 -> 497 ;
498 [label=<gini = 0.0<br/>samples = 1<br/>value = [0, 1]<br/>class = 1.0>, fillcolor="#399de5"] ;
497 -> 498 ;
499 [label=<DayOfWeek &le; 1.5<br/>gini = 0.102<br/>samples = 37<br/>value = [35, 2]<br/>class = 0.0>, fillcolor="#e68844"] ;
497 -> 499 ;
500 [label=<Distance &le; 0.35<br/>gini = 0.444<br/>samples = 6<br/>value = [4, 2]<br/>class = 0.0>, fillcolor="#f2c09c"] ;
499 -> 500 ;
501 [label=<gini = 0.0<br/>samples = 3<br/>value = [3, 0]<br/>class = 0.0>, fillcolor="#e58139"] ;
500 -> 501 ;
502 [label=<Month &le; 3.5<br/>gini = 0.444<br/>samples = 3<br/>value = [1, 2]<br/>class = 1.0>, fillcolor="#9ccef2"] ;
500 -> 502 ;
503 [label=<gini = 0.0<br/>samples = 1<br/>value = [1, 0]<br/>class = 0.0>, fillcolor="#e58139"] ;
502 -> 503 ;
504 [label=<gini = 0.0<br/>samples = 2<br/>value = [0, 2]<br/>class = 1.0>, fillcolor="#399de5"] ;
502 -> 504 ;
505 [label=<gini = 0.0<br/>samples = 31<br/>value = [31, 0]<br/>class = 0.0>, fillcolor="#e58139"] ;
499 -> 505 ;
506 [label=<Dest &le; 271.0<br/>gini = 0.026<br/>samples = 224<br/>value = [221, 3]<br/>class = 0.0>, fillcolor="#e5833c"] ;
496 -> 506 ;
507 [label=<DayofMonth &le; 27.5<br/>gini = 0.018<br/>samples = 215<br/>value = [213, 2]<br/>class = 0.0>, fillcolor="#e5823b"] ;
506 -> 507 ;
508 [label=<Month &le; 10.5<br/>gini = 0.01<br/>samples = 199<br/>value = [198, 1]<br/>class = 0.0>, fillcolor="#e5823a"] ;
507 -> 508 ;
509 [label=<gini = 0.0<br/>samples = 180<br/>value = [180, 0]<br/>class = 0.0>, fillcolor="#e58139"] ;
508 -> 509 ;
510 [label=<Origin &le; 73.0<br/>gini = 0.1<br/>samples = 19<br/>value = [18, 1]<br/>class = 0.0>, fillcolor="#e68844"] ;
508 -> 510 ;
511 [label=<DayOfWeek &le; 3.0<br/>gini = 0.444<br/>samples = 3<br/>value = [2, 1]<br/>class = 0.0>, fillcolor="#f2c09c"] ;
510 -> 511 ;
512 [label=<gini = 0.0<br/>samples = 2<br/>value = [2, 0]<br/>class = 0.0>, fillcolor="#e58139"] ;
511 -> 512 ;
513 [label=<gini = 0.0<br/>samples = 1<br/>value = [0, 1]<br/>class = 1.0>, fillcolor="#399de5"] ;
511 -> 513 ;
514 [label=<gini = 0.0<br/>samples = 16<br/>value = [16, 0]<br/>class = 0.0>, fillcolor="#e58139"] ;
510 -> 514 ;
515 [label=<Distance &le; 0.663<br/>gini = 0.117<br/>samples = 16<br/>value = [15, 1]<br/>class = 0.0>, fillcolor="#e78946"] ;
507 -> 515 ;
516 [label=<gini = 0.0<br/>samples = 13<br/>value = [13, 0]<br/>class = 0.0>, fillcolor="#e58139"] ;
515 -> 516 ;
517 [label=<DayofMonth &le; 28.5<br/>gini = 0.444<br/>samples = 3<br/>value = [2, 1]<br/>class = 0.0>, fillcolor="#f2c09c"] ;
515 -> 517 ;
518 [label=<gini = 0.0<br/>samples = 1<br/>value = [0, 1]<br/>class = 1.0>, fillcolor="#399de5"] ;
517 -> 518 ;
519 [label=<gini = 0.0<br/>samples = 2<br/>value = [2, 0]<br/>class = 0.0>, fillcolor="#e58139"] ;
517 -> 519 ;
520 [label=<Dest &le; 281.0<br/>gini = 0.198<br/>samples = 9<br/>value = [8, 1]<br/>class = 0.0>, fillcolor="#e89152"] ;
506 -> 520 ;
521 [label=<gini = 0.0<br/>samples = 1<br/>value = [0, 1]<br/>class = 1.0>, fillcolor="#399de5"] ;
520 -> 521 ;
522 [label=<gini = 0.0<br/>samples = 8<br/>value = [8, 0]<br/>class = 0.0>, fillcolor="#e58139"] ;
520 -> 522 ;
523 [label=<Dest &le; 81.5<br/>gini = 0.207<br/>samples = 111<br/>value = [98, 13]<br/>class = 0.0>, fillcolor="#e89253"] ;
473 -> 523 ;
524 [label=<DepTime &le; -1.458<br/>gini = 0.473<br/>samples = 13<br/>value = [8, 5]<br/>class = 0.0>, fillcolor="#f5d0b5"] ;
523 -> 524 ;
525 [label=<DayOfWeek &le; 2.5<br/>gini = 0.198<br/>samples = 9<br/>value = [8, 1]<br/>class = 0.0>, fillcolor="#e89152"] ;
524 -> 525 ;
526 [label=<gini = 0.0<br/>samples = 6<br/>value = [6, 0]<br/>class = 0.0>, fillcolor="#e58139"] ;
525 -> 526 ;
527 [label=<DepTime &le; -1.478<br/>gini = 0.444<br/>samples = 3<br/>value = [2, 1]<br/>class = 0.0>, fillcolor="#f2c09c"] ;
525 -> 527 ;
528 [label=<gini = 0.0<br/>samples = 2<br/>value = [2, 0]<br/>class = 0.0>, fillcolor="#e58139"] ;
527 -> 528 ;
529 [label=<gini = 0.0<br/>samples = 1<br/>value = [0, 1]<br/>class = 1.0>, fillcolor="#399de5"] ;
527 -> 529 ;
530 [label=<gini = 0.0<br/>samples = 4<br/>value = [0, 4]<br/>class = 1.0>, fillcolor="#399de5"] ;
524 -> 530 ;
531 [label=<flight &le; 3675.5<br/>gini = 0.15<br/>samples = 98<br/>value = [90.0, 8.0]<br/>class = 0.0>, fillcolor="#e78c4b"] ;
523 -> 531 ;
532 [label=<DayofMonth &le; 12.0<br/>gini = 0.444<br/>samples = 3<br/>value = [1, 2]<br/>class = 1.0>, fillcolor="#9ccef2"] ;
531 -> 532 ;
533 [label=<gini = 0.0<br/>samples = 1<br/>value = [0, 1]<br/>class = 1.0>, fillcolor="#399de5"] ;
532 -> 533 ;
534 [label=<DepTime &le; -1.46<br/>gini = 0.5<br/>samples = 2<br/>value = [1, 1]<br/>class = 0.0>, fillcolor="#ffffff"] ;
532 -> 534 ;
535 [label=<gini = 0.0<br/>samples = 1<br/>value = [1, 0]<br/>class = 0.0>, fillcolor="#e58139"] ;
534 -> 535 ;
536 [label=<gini = 0.0<br/>samples = 1<br/>value = [0, 1]<br/>class = 1.0>, fillcolor="#399de5"] ;
534 -> 536 ;
537 [label=<DayofMonth &le; 1.5<br/>gini = 0.118<br/>samples = 95<br/>value = [89, 6]<br/>class = 0.0>, fillcolor="#e78946"] ;
531 -> 537 ;
538 [label=<gini = 0.0<br/>samples = 1<br/>value = [0, 1]<br/>class = 1.0>, fillcolor="#399de5"] ;
537 -> 538 ;
539 [label=<DepTime &le; -1.462<br/>gini = 0.101<br/>samples = 94<br/>value = [89, 5]<br/>class = 0.0>, fillcolor="#e68844"] ;
537 -> 539 ;
540 [label=<gini = 0.0<br/>samples = 35<br/>value = [35, 0]<br/>class = 0.0>, fillcolor="#e58139"] ;
539 -> 540 ;
541 [label=<DepTime &le; -1.458<br/>gini = 0.155<br/>samples = 59<br/>value = [54, 5]<br/>class = 0.0>, fillcolor="#e78d4b"] ;
539 -> 541 ;
542 [label=<gini = 0.0<br/>samples = 1<br/>value = [0, 1]<br/>class = 1.0>, fillcolor="#399de5"] ;
541 -> 542 ;
543 [label=<Dest &le; 253.5<br/>gini = 0.128<br/>samples = 58<br/>value = [54, 4]<br/>class = 0.0>, fillcolor="#e78a48"] ;
541 -> 543 ;
544 [label=<DayofMonth &le; 3.5<br/>gini = 0.075<br/>samples = 51<br/>value = [49, 2]<br/>class = 0.0>, fillcolor="#e68641"] ;
543 -> 544 ;
545 [label=<DepTime &le; -1.433<br/>gini = 0.444<br/>samples = 3<br/>value = [2, 1]<br/>class = 0.0>, fillcolor="#f2c09c"] ;
544 -> 545 ;
546 [label=<gini = 0.0<br/>samples = 2<br/>value = [2, 0]<br/>class = 0.0>, fillcolor="#e58139"] ;
545 -> 546 ;
547 [label=<gini = 0.0<br/>samples = 1<br/>value = [0, 1]<br/>class = 1.0>, fillcolor="#399de5"] ;
545 -> 547 ;
548 [label=<DepTime &le; -1.329<br/>gini = 0.041<br/>samples = 48<br/>value = [47, 1]<br/>class = 0.0>, fillcolor="#e6843d"] ;
544 -> 548 ;
549 [label=<gini = 0.0<br/>samples = 43<br/>value = [43, 0]<br/>class = 0.0>, fillcolor="#e58139"] ;
548 -> 549 ;
550 [label=<Distance &le; 0.464<br/>gini = 0.32<br/>samples = 5<br/>value = [4, 1]<br/>class = 0.0>, fillcolor="#eca06a"] ;
548 -> 550 ;
551 [label=<gini = 0.0<br/>samples = 1<br/>value = [0, 1]<br/>class = 1.0>, fillcolor="#399de5"] ;
550 -> 551 ;
552 [label=<gini = 0.0<br/>samples = 4<br/>value = [4, 0]<br/>class = 0.0>, fillcolor="#e58139"] ;
550 -> 552 ;
553 [label=<Month &le; 9.0<br/>gini = 0.408<br/>samples = 7<br/>value = [5, 2]<br/>class = 0.0>, fillcolor="#efb388"] ;
543 -> 553 ;
554 [label=<gini = 0.0<br/>samples = 2<br/>value = [0, 2]<br/>class = 1.0>, fillcolor="#399de5"] ;
553 -> 554 ;
555 [label=<gini = 0.0<br/>samples = 5<br/>value = [5, 0]<br/>class = 0.0>, fillcolor="#e58139"] ;
553 -> 555 ;
556 [label=<UniqueCarrier &le; 18.5<br/>gini = 0.01<br/>samples = 411<br/>value = [409, 2]<br/>class = 0.0>, fillcolor="#e5823a"] ;
230 -> 556 ;
557 [label=<DepTime &le; -1.335<br/>gini = 0.005<br/>samples = 385<br/>value = [384, 1]<br/>class = 0.0>, fillcolor="#e5813a"] ;
556 -> 557 ;
558 [label=<gini = 0.0<br/>samples = 352<br/>value = [352, 0]<br/>class = 0.0>, fillcolor="#e58139"] ;
557 -> 558 ;
559 [label=<flight &le; 4015.0<br/>gini = 0.059<br/>samples = 33<br/>value = [32, 1]<br/>class = 0.0>, fillcolor="#e6853f"] ;
557 -> 559 ;
560 [label=<gini = 0.0<br/>samples = 32<br/>value = [32, 0]<br/>class = 0.0>, fillcolor="#e58139"] ;
559 -> 560 ;
561 [label=<gini = 0.0<br/>samples = 1<br/>value = [0, 1]<br/>class = 1.0>, fillcolor="#399de5"] ;
559 -> 561 ;
562 [label=<DayOfWeek &le; 2.5<br/>gini = 0.074<br/>samples = 26<br/>value = [25, 1]<br/>class = 0.0>, fillcolor="#e68641"] ;
556 -> 562 ;
563 [label=<Distance &le; 2.823<br/>gini = 0.245<br/>samples = 7<br/>value = [6, 1]<br/>class = 0.0>, fillcolor="#e9965a"] ;
562 -> 563 ;
564 [label=<gini = 0.0<br/>samples = 6<br/>value = [6, 0]<br/>class = 0.0>, fillcolor="#e58139"] ;
563 -> 564 ;
565 [label=<gini = 0.0<br/>samples = 1<br/>value = [0, 1]<br/>class = 1.0>, fillcolor="#399de5"] ;
563 -> 565 ;
566 [label=<gini = 0.0<br/>samples = 19<br/>value = [19, 0]<br/>class = 0.0>, fillcolor="#e58139"] ;
562 -> 566 ;
567 [label=<DayOfWeek &le; 6.5<br/>gini = 0.5<br/>samples = 2<br/>value = [1, 1]<br/>class = 0.0>, fillcolor="#ffffff"] ;
229 -> 567 ;
568 [label=<gini = 0.0<br/>samples = 1<br/>value = [1, 0]<br/>class = 0.0>, fillcolor="#e58139"] ;
567 -> 568 ;
569 [label=<gini = 0.0<br/>samples = 1<br/>value = [0, 1]<br/>class = 1.0>, fillcolor="#399de5"] ;
567 -> 569 ;
570 [label=<UniqueCarrier &le; 21.5<br/>gini = 0.026<br/>samples = 1043<br/>value = [1029, 14]<br/>class = 0.0>, fillcolor="#e5833c"] ;
228 -> 570 ;
571 [label=<flight &le; 2362.0<br/>gini = 0.02<br/>samples = 984<br/>value = [974, 10]<br/>class = 0.0>, fillcolor="#e5823b"] ;
570 -> 571 ;
572 [label=<gini = 0.0<br/>samples = 380<br/>value = [380, 0]<br/>class = 0.0>, fillcolor="#e58139"] ;
571 -> 572 ;
573 [label=<flight &le; 2367.0<br/>gini = 0.033<br/>samples = 604<br/>value = [594, 10]<br/>class = 0.0>, fillcolor="#e5833c"] ;
571 -> 573 ;
574 [label=<DayofMonth &le; 9.0<br/>gini = 0.5<br/>samples = 2<br/>value = [1, 1]<br/>class = 0.0>, fillcolor="#ffffff"] ;
573 -> 574 ;
575 [label=<gini = 0.0<br/>samples = 1<br/>value = [0, 1]<br/>class = 1.0>, fillcolor="#399de5"] ;
574 -> 575 ;
576 [label=<gini = 0.0<br/>samples = 1<br/>value = [1, 0]<br/>class = 0.0>, fillcolor="#e58139"] ;
574 -> 576 ;
577 [label=<DepTime &le; -1.437<br/>gini = 0.029<br/>samples = 602<br/>value = [593, 9]<br/>class = 0.0>, fillcolor="#e5833c"] ;
573 -> 577 ;
578 [label=<Distance &le; -0.861<br/>gini = 0.015<br/>samples = 406<br/>value = [403, 3]<br/>class = 0.0>, fillcolor="#e5823a"] ;
577 -> 578 ;
579 [label=<Distance &le; -0.868<br/>gini = 0.067<br/>samples = 29<br/>value = [28, 1]<br/>class = 0.0>, fillcolor="#e68640"] ;
578 -> 579 ;
580 [label=<gini = 0.0<br/>samples = 27<br/>value = [27, 0]<br/>class = 0.0>, fillcolor="#e58139"] ;
579 -> 580 ;
581 [label=<Origin &le; 160.0<br/>gini = 0.5<br/>samples = 2<br/>value = [1, 1]<br/>class = 0.0>, fillcolor="#ffffff"] ;
579 -> 581 ;
582 [label=<gini = 0.0<br/>samples = 1<br/>value = [1, 0]<br/>class = 0.0>, fillcolor="#e58139"] ;
581 -> 582 ;
583 [label=<gini = 0.0<br/>samples = 1<br/>value = [0, 1]<br/>class = 1.0>, fillcolor="#399de5"] ;
581 -> 583 ;
584 [label=<Month &le; 8.5<br/>gini = 0.011<br/>samples = 377<br/>value = [375, 2]<br/>class = 0.0>, fillcolor="#e5823a"] ;
578 -> 584 ;
585 [label=<gini = 0.0<br/>samples = 266<br/>value = [266, 0]<br/>class = 0.0>, fillcolor="#e58139"] ;
584 -> 585 ;
586 [label=<DayofMonth &le; 18.5<br/>gini = 0.035<br/>samples = 111<br/>value = [109, 2]<br/>class = 0.0>, fillcolor="#e5833d"] ;
584 -> 586 ;
587 [label=<gini = 0.0<br/>samples = 69<br/>value = [69, 0]<br/>class = 0.0>, fillcolor="#e58139"] ;
586 -> 587 ;
588 [label=<DayofMonth &le; 22.5<br/>gini = 0.091<br/>samples = 42<br/>value = [40, 2]<br/>class = 0.0>, fillcolor="#e68743"] ;
586 -> 588 ;
589 [label=<Distance &le; -0.502<br/>gini = 0.245<br/>samples = 14<br/>value = [12, 2]<br/>class = 0.0>, fillcolor="#e9965a"] ;
588 -> 589 ;
590 [label=<gini = 0.0<br/>samples = 8<br/>value = [8, 0]<br/>class = 0.0>, fillcolor="#e58139"] ;
589 -> 590 ;
591 [label=<DayofMonth &le; 20.0<br/>gini = 0.444<br/>samples = 6<br/>value = [4, 2]<br/>class = 0.0>, fillcolor="#f2c09c"] ;
589 -> 591 ;
592 [label=<gini = 0.0<br/>samples = 1<br/>value = [0, 1]<br/>class = 1.0>, fillcolor="#399de5"] ;
591 -> 592 ;
593 [label=<DepTime &le; -1.471<br/>gini = 0.32<br/>samples = 5<br/>value = [4, 1]<br/>class = 0.0>, fillcolor="#eca06a"] ;
591 -> 593 ;
594 [label=<gini = 0.0<br/>samples = 1<br/>value = [0, 1]<br/>class = 1.0>, fillcolor="#399de5"] ;
593 -> 594 ;
595 [label=<gini = 0.0<br/>samples = 4<br/>value = [4, 0]<br/>class = 0.0>, fillcolor="#e58139"] ;
593 -> 595 ;
596 [label=<gini = 0.0<br/>samples = 28<br/>value = [28, 0]<br/>class = 0.0>, fillcolor="#e58139"] ;
588 -> 596 ;
597 [label=<DepTime &le; -1.435<br/>gini = 0.059<br/>samples = 196<br/>value = [190, 6]<br/>class = 0.0>, fillcolor="#e6853f"] ;
577 -> 597 ;
598 [label=<Month &le; 4.5<br/>gini = 0.444<br/>samples = 6<br/>value = [4, 2]<br/>class = 0.0>, fillcolor="#f2c09c"] ;
597 -> 598 ;
599 [label=<Dest &le; 28.5<br/>gini = 0.444<br/>samples = 3<br/>value = [1, 2]<br/>class = 1.0>, fillcolor="#9ccef2"] ;
598 -> 599 ;
600 [label=<gini = 0.0<br/>samples = 1<br/>value = [1, 0]<br/>class = 0.0>, fillcolor="#e58139"] ;
599 -> 600 ;
601 [label=<gini = 0.0<br/>samples = 2<br/>value = [0, 2]<br/>class = 1.0>, fillcolor="#399de5"] ;
599 -> 601 ;
602 [label=<gini = 0.0<br/>samples = 3<br/>value = [3, 0]<br/>class = 0.0>, fillcolor="#e58139"] ;
598 -> 602 ;
603 [label=<Origin &le; 270.0<br/>gini = 0.041<br/>samples = 190<br/>value = [186, 4]<br/>class = 0.0>, fillcolor="#e6843d"] ;
597 -> 603 ;
604 [label=<DepTime &le; -1.429<br/>gini = 0.023<br/>samples = 172<br/>value = [170, 2]<br/>class = 0.0>, fillcolor="#e5823b"] ;
603 -> 604 ;
605 [label=<Distance &le; 1.334<br/>gini = 0.102<br/>samples = 37<br/>value = [35, 2]<br/>class = 0.0>, fillcolor="#e68844"] ;
604 -> 605 ;
606 [label=<DepTime &le; -1.431<br/>gini = 0.059<br/>samples = 33<br/>value = [32, 1]<br/>class = 0.0>, fillcolor="#e6853f"] ;
605 -> 606 ;
607 [label=<gini = 0.0<br/>samples = 28<br/>value = [28, 0]<br/>class = 0.0>, fillcolor="#e58139"] ;
606 -> 607 ;
608 [label=<Dest &le; 128.5<br/>gini = 0.32<br/>samples = 5<br/>value = [4, 1]<br/>class = 0.0>, fillcolor="#eca06a"] ;
606 -> 608 ;
609 [label=<gini = 0.0<br/>samples = 4<br/>value = [4, 0]<br/>class = 0.0>, fillcolor="#e58139"] ;
608 -> 609 ;
610 [label=<gini = 0.0<br/>samples = 1<br/>value = [0, 1]<br/>class = 1.0>, fillcolor="#399de5"] ;
608 -> 610 ;
611 [label=<Dest &le; 180.0<br/>gini = 0.375<br/>samples = 4<br/>value = [3, 1]<br/>class = 0.0>, fillcolor="#eeab7b"] ;
605 -> 611 ;
612 [label=<gini = 0.0<br/>samples = 1<br/>value = [0, 1]<br/>class = 1.0>, fillcolor="#399de5"] ;
611 -> 612 ;
613 [label=<gini = 0.0<br/>samples = 3<br/>value = [3, 0]<br/>class = 0.0>, fillcolor="#e58139"] ;
611 -> 613 ;
614 [label=<gini = 0.0<br/>samples = 135<br/>value = [135, 0]<br/>class = 0.0>, fillcolor="#e58139"] ;
604 -> 614 ;
615 [label=<flight &le; 4753.5<br/>gini = 0.198<br/>samples = 18<br/>value = [16, 2]<br/>class = 0.0>, fillcolor="#e89152"] ;
603 -> 615 ;
616 [label=<gini = 0.0<br/>samples = 1<br/>value = [0, 1]<br/>class = 1.0>, fillcolor="#399de5"] ;
615 -> 616 ;
617 [label=<DayOfWeek &le; 1.5<br/>gini = 0.111<br/>samples = 17<br/>value = [16, 1]<br/>class = 0.0>, fillcolor="#e78945"] ;
615 -> 617 ;
618 [label=<DepTime &le; -1.383<br/>gini = 0.5<br/>samples = 2<br/>value = [1, 1]<br/>class = 0.0>, fillcolor="#ffffff"] ;
617 -> 618 ;
619 [label=<gini = 0.0<br/>samples = 1<br/>value = [1, 0]<br/>class = 0.0>, fillcolor="#e58139"] ;
618 -> 619 ;
620 [label=<gini = 0.0<br/>samples = 1<br/>value = [0, 1]<br/>class = 1.0>, fillcolor="#399de5"] ;
618 -> 620 ;
621 [label=<gini = 0.0<br/>samples = 15<br/>value = [15, 0]<br/>class = 0.0>, fillcolor="#e58139"] ;
617 -> 621 ;
622 [label=<Month &le; 7.5<br/>gini = 0.126<br/>samples = 59<br/>value = [55, 4]<br/>class = 0.0>, fillcolor="#e78a47"] ;
570 -> 622 ;
623 [label=<gini = 0.0<br/>samples = 30<br/>value = [30, 0]<br/>class = 0.0>, fillcolor="#e58139"] ;
622 -> 623 ;
624 [label=<Month &le; 8.5<br/>gini = 0.238<br/>samples = 29<br/>value = [25, 4]<br/>class = 0.0>, fillcolor="#e99559"] ;
622 -> 624 ;
625 [label=<DayOfWeek &le; 5.0<br/>gini = 0.463<br/>samples = 11<br/>value = [7, 4]<br/>class = 0.0>, fillcolor="#f4c9aa"] ;
624 -> 625 ;
626 [label=<DayOfWeek &le; 3.5<br/>gini = 0.49<br/>samples = 7<br/>value = [3, 4]<br/>class = 1.0>, fillcolor="#cee6f8"] ;
625 -> 626 ;
627 [label=<DayofMonth &le; 8.0<br/>gini = 0.375<br/>samples = 4<br/>value = [3, 1]<br/>class = 0.0>, fillcolor="#eeab7b"] ;
626 -> 627 ;
628 [label=<Distance &le; -0.427<br/>gini = 0.5<br/>samples = 2<br/>value = [1, 1]<br/>class = 0.0>, fillcolor="#ffffff"] ;
627 -> 628 ;
629 [label=<gini = 0.0<br/>samples = 1<br/>value = [1, 0]<br/>class = 0.0>, fillcolor="#e58139"] ;
628 -> 629 ;
630 [label=<gini = 0.0<br/>samples = 1<br/>value = [0, 1]<br/>class = 1.0>, fillcolor="#399de5"] ;
628 -> 630 ;
631 [label=<gini = 0.0<br/>samples = 2<br/>value = [2, 0]<br/>class = 0.0>, fillcolor="#e58139"] ;
627 -> 631 ;
632 [label=<gini = 0.0<br/>samples = 3<br/>value = [0, 3]<br/>class = 1.0>, fillcolor="#399de5"] ;
626 -> 632 ;
633 [label=<gini = 0.0<br/>samples = 4<br/>value = [4, 0]<br/>class = 0.0>, fillcolor="#e58139"] ;
625 -> 633 ;
634 [label=<gini = 0.0<br/>samples = 18<br/>value = [18, 0]<br/>class = 0.0>, fillcolor="#e58139"] ;
624 -> 634 ;
635 [label=<Dest &le; 14.0<br/>gini = 0.109<br/>samples = 363<br/>value = [342, 21]<br/>class = 0.0>, fillcolor="#e78945"] ;
193 -> 635 ;
636 [label=<Origin &le; 132.5<br/>gini = 0.5<br/>samples = 2<br/>value = [1, 1]<br/>class = 0.0>, fillcolor="#ffffff"] ;
635 -> 636 ;
637 [label=<gini = 0.0<br/>samples = 1<br/>value = [0, 1]<br/>class = 1.0>, fillcolor="#399de5"] ;
636 -> 637 ;
638 [label=<gini = 0.0<br/>samples = 1<br/>value = [1, 0]<br/>class = 0.0>, fillcolor="#e58139"] ;
636 -> 638 ;
639 [label=<DepTime &le; -1.502<br/>gini = 0.105<br/>samples = 361<br/>value = [341, 20]<br/>class = 0.0>, fillcolor="#e78845"] ;
635 -> 639 ;
640 [label=<UniqueCarrier &le; 21.5<br/>gini = 0.245<br/>samples = 28<br/>value = [24, 4]<br/>class = 0.0>, fillcolor="#e9965a"] ;
639 -> 640 ;
641 [label=<Dest &le; 90.0<br/>gini = 0.198<br/>samples = 27<br/>value = [24, 3]<br/>class = 0.0>, fillcolor="#e89152"] ;
640 -> 641 ;
642 [label=<Origin &le; 116.5<br/>gini = 0.397<br/>samples = 11<br/>value = [8, 3]<br/>class = 0.0>, fillcolor="#efb083"] ;
641 -> 642 ;
643 [label=<gini = 0.0<br/>samples = 6<br/>value = [6, 0]<br/>class = 0.0>, fillcolor="#e58139"] ;
642 -> 643 ;
644 [label=<UniqueCarrier &le; 10.5<br/>gini = 0.48<br/>samples = 5<br/>value = [2, 3]<br/>class = 1.0>, fillcolor="#bddef6"] ;
642 -> 644 ;
645 [label=<Origin &le; 137.5<br/>gini = 0.444<br/>samples = 3<br/>value = [2, 1]<br/>class = 0.0>, fillcolor="#f2c09c"] ;
644 -> 645 ;
646 [label=<gini = 0.0<br/>samples = 1<br/>value = [0, 1]<br/>class = 1.0>, fillcolor="#399de5"] ;
645 -> 646 ;
647 [label=<gini = 0.0<br/>samples = 2<br/>value = [2, 0]<br/>class = 0.0>, fillcolor="#e58139"] ;
645 -> 647 ;
648 [label=<gini = 0.0<br/>samples = 2<br/>value = [0, 2]<br/>class = 1.0>, fillcolor="#399de5"] ;
644 -> 648 ;
649 [label=<gini = 0.0<br/>samples = 16<br/>value = [16, 0]<br/>class = 0.0>, fillcolor="#e58139"] ;
641 -> 649 ;
650 [label=<gini = 0.0<br/>samples = 1<br/>value = [0, 1]<br/>class = 1.0>, fillcolor="#399de5"] ;
640 -> 650 ;
651 [label=<DepTime &le; -1.465<br/>gini = 0.091<br/>samples = 333<br/>value = [317, 16]<br/>class = 0.0>, fillcolor="#e68743"] ;
639 -> 651 ;
652 [label=<gini = 0.0<br/>samples = 120<br/>value = [120, 0]<br/>class = 0.0>, fillcolor="#e58139"] ;
651 -> 652 ;
653 [label=<DepTime &le; -1.446<br/>gini = 0.139<br/>samples = 213<br/>value = [197, 16]<br/>class = 0.0>, fillcolor="#e78b49"] ;
651 -> 653 ;
654 [label=<DayOfWeek &le; 3.5<br/>gini = 0.278<br/>samples = 66<br/>value = [55, 11]<br/>class = 0.0>, fillcolor="#ea9a61"] ;
653 -> 654 ;
655 [label=<gini = 0.0<br/>samples = 28<br/>value = [28, 0]<br/>class = 0.0>, fillcolor="#e58139"] ;
654 -> 655 ;
656 [label=<Distance &le; 1.37<br/>gini = 0.411<br/>samples = 38<br/>value = [27, 11]<br/>class = 0.0>, fillcolor="#f0b48a"] ;
654 -> 656 ;
657 [label=<flight &le; 4094.0<br/>gini = 0.334<br/>samples = 33<br/>value = [26, 7]<br/>class = 0.0>, fillcolor="#eca36e"] ;
656 -> 657 ;
658 [label=<DepTime &le; -1.456<br/>gini = 0.165<br/>samples = 22<br/>value = [20, 2]<br/>class = 0.0>, fillcolor="#e88e4d"] ;
657 -> 658 ;
659 [label=<gini = 0.0<br/>samples = 12<br/>value = [12, 0]<br/>class = 0.0>, fillcolor="#e58139"] ;
658 -> 659 ;
660 [label=<Dest &le; 135.0<br/>gini = 0.32<br/>samples = 10<br/>value = [8, 2]<br/>class = 0.0>, fillcolor="#eca06a"] ;
658 -> 660 ;
661 [label=<gini = 0.0<br/>samples = 5<br/>value = [5, 0]<br/>class = 0.0>, fillcolor="#e58139"] ;
660 -> 661 ;
662 [label=<DayOfWeek &le; 6.0<br/>gini = 0.48<br/>samples = 5<br/>value = [3, 2]<br/>class = 0.0>, fillcolor="#f6d5bd"] ;
660 -> 662 ;
663 [label=<gini = 0.0<br/>samples = 2<br/>value = [0, 2]<br/>class = 1.0>, fillcolor="#399de5"] ;
662 -> 663 ;
664 [label=<gini = 0.0<br/>samples = 3<br/>value = [3, 0]<br/>class = 0.0>, fillcolor="#e58139"] ;
662 -> 664 ;
665 [label=<Dest &le; 211.5<br/>gini = 0.496<br/>samples = 11<br/>value = [6, 5]<br/>class = 0.0>, fillcolor="#fbeade"] ;
657 -> 665 ;
666 [label=<Distance &le; 0.005<br/>gini = 0.469<br/>samples = 8<br/>value = [3, 5]<br/>class = 1.0>, fillcolor="#b0d8f5"] ;
665 -> 666 ;
667 [label=<DayOfWeek &le; 4.5<br/>gini = 0.375<br/>samples = 4<br/>value = [3, 1]<br/>class = 0.0>, fillcolor="#eeab7b"] ;
666 -> 667 ;
668 [label=<gini = 0.0<br/>samples = 1<br/>value = [0, 1]<br/>class = 1.0>, fillcolor="#399de5"] ;
667 -> 668 ;
669 [label=<gini = 0.0<br/>samples = 3<br/>value = [3, 0]<br/>class = 0.0>, fillcolor="#e58139"] ;
667 -> 669 ;
670 [label=<gini = 0.0<br/>samples = 4<br/>value = [0, 4]<br/>class = 1.0>, fillcolor="#399de5"] ;
666 -> 670 ;
671 [label=<gini = 0.0<br/>samples = 3<br/>value = [3, 0]<br/>class = 0.0>, fillcolor="#e58139"] ;
665 -> 671 ;
672 [label=<Distance &le; 2.999<br/>gini = 0.32<br/>samples = 5<br/>value = [1, 4]<br/>class = 1.0>, fillcolor="#6ab6ec"] ;
656 -> 672 ;
673 [label=<gini = 0.0<br/>samples = 4<br/>value = [0, 4]<br/>class = 1.0>, fillcolor="#399de5"] ;
672 -> 673 ;
674 [label=<gini = 0.0<br/>samples = 1<br/>value = [1, 0]<br/>class = 0.0>, fillcolor="#e58139"] ;
672 -> 674 ;
675 [label=<Origin &le; 99.5<br/>gini = 0.066<br/>samples = 147<br/>value = [142.0, 5.0]<br/>class = 0.0>, fillcolor="#e68540"] ;
653 -> 675 ;
676 [label=<flight &le; 1567.0<br/>gini = 0.19<br/>samples = 47<br/>value = [42, 5]<br/>class = 0.0>, fillcolor="#e89051"] ;
675 -> 676 ;
677 [label=<DepTime &le; -1.331<br/>gini = 0.05<br/>samples = 39<br/>value = [38, 1]<br/>class = 0.0>, fillcolor="#e6843e"] ;
676 -> 677 ;
678 [label=<gini = 0.0<br/>samples = 37<br/>value = [37, 0]<br/>class = 0.0>, fillcolor="#e58139"] ;
677 -> 678 ;
679 [label=<flight &le; 1312.0<br/>gini = 0.5<br/>samples = 2<br/>value = [1, 1]<br/>class = 0.0>, fillcolor="#ffffff"] ;
677 -> 679 ;
680 [label=<gini = 0.0<br/>samples = 1<br/>value = [1, 0]<br/>class = 0.0>, fillcolor="#e58139"] ;
679 -> 680 ;
681 [label=<gini = 0.0<br/>samples = 1<br/>value = [0, 1]<br/>class = 1.0>, fillcolor="#399de5"] ;
679 -> 681 ;
682 [label=<DayOfWeek &le; 2.5<br/>gini = 0.5<br/>samples = 8<br/>value = [4, 4]<br/>class = 0.0>, fillcolor="#ffffff"] ;
676 -> 682 ;
683 [label=<gini = 0.0<br/>samples = 3<br/>value = [0, 3]<br/>class = 1.0>, fillcolor="#399de5"] ;
682 -> 683 ;
684 [label=<UniqueCarrier &le; 17.0<br/>gini = 0.32<br/>samples = 5<br/>value = [4, 1]<br/>class = 0.0>, fillcolor="#eca06a"] ;
682 -> 684 ;
685 [label=<gini = 0.0<br/>samples = 4<br/>value = [4, 0]<br/>class = 0.0>, fillcolor="#e58139"] ;
684 -> 685 ;
686 [label=<gini = 0.0<br/>samples = 1<br/>value = [0, 1]<br/>class = 1.0>, fillcolor="#399de5"] ;
684 -> 686 ;
687 [label=<gini = 0.0<br/>samples = 100<br/>value = [100, 0]<br/>class = 0.0>, fillcolor="#e58139"] ;
675 -> 687 ;
688 [label=<Month &le; 11.5<br/>gini = 0.13<br/>samples = 10045<br/>value = [9342.0, 703.0]<br/>class = 0.0>, fillcolor="#e78a48"] ;
120 -> 688 ;
689 [label=<flight &le; 5046.5<br/>gini = 0.124<br/>samples = 9187<br/>value = [8577, 610]<br/>class = 0.0>, fillcolor="#e78a47"] ;
688 -> 689 ;
690 [label=<DayOfWeek &le; 6.5<br/>gini = 0.124<br/>samples = 9186<br/>value = [8577, 609]<br/>class = 0.0>, fillcolor="#e78a47"] ;
689 -> 690 ;
691 [label=<Distance &le; -0.945<br/>gini = 0.129<br/>samples = 7981<br/>value = [7427, 554]<br/>class = 0.0>, fillcolor="#e78a48"] ;
690 -> 691 ;
692 [label=<DayOfWeek &le; 1.5<br/>gini = 0.072<br/>samples = 563<br/>value = [542, 21]<br/>class = 0.0>, fillcolor="#e68641"] ;
691 -> 692 ;
693 [label=<DayofMonth &le; 20.5<br/>gini = 0.178<br/>samples = 91<br/>value = [82, 9]<br/>class = 0.0>, fillcolor="#e88f4f"] ;
692 -> 693 ;
694 [label=<flight &le; 4411.0<br/>gini = 0.259<br/>samples = 59<br/>value = [50, 9]<br/>class = 0.0>, fillcolor="#ea985d"] ;
693 -> 694 ;
695 [label=<flight &le; 81.0<br/>gini = 0.219<br/>samples = 56<br/>value = [49, 7]<br/>class = 0.0>, fillcolor="#e99355"] ;
694 -> 695 ;
696 [label=<gini = 0.0<br/>samples = 1<br/>value = [0, 1]<br/>class = 1.0>, fillcolor="#399de5"] ;
695 -> 696 ;
697 [label=<DayofMonth &le; 19.0<br/>gini = 0.194<br/>samples = 55<br/>value = [49, 6]<br/>class = 0.0>, fillcolor="#e89051"] ;
695 -> 697 ;
698 [label=<Dest &le; 35.0<br/>gini = 0.168<br/>samples = 54<br/>value = [49, 5]<br/>class = 0.0>, fillcolor="#e88e4d"] ;
697 -> 698 ;
699 [label=<DepTime &le; -1.152<br/>gini = 0.48<br/>samples = 5<br/>value = [3, 2]<br/>class = 0.0>, fillcolor="#f6d5bd"] ;
698 -> 699 ;
700 [label=<gini = 0.0<br/>samples = 3<br/>value = [3, 0]<br/>class = 0.0>, fillcolor="#e58139"] ;
699 -> 700 ;
701 [label=<gini = 0.0<br/>samples = 2<br/>value = [0, 2]<br/>class = 1.0>, fillcolor="#399de5"] ;
699 -> 701 ;
702 [label=<Origin &le; 165.0<br/>gini = 0.115<br/>samples = 49<br/>value = [46, 3]<br/>class = 0.0>, fillcolor="#e78946"] ;
698 -> 702 ;
703 [label=<gini = 0.0<br/>samples = 35<br/>value = [35, 0]<br/>class = 0.0>, fillcolor="#e58139"] ;
702 -> 703 ;
704 [label=<DepTime &le; -1.044<br/>gini = 0.337<br/>samples = 14<br/>value = [11, 3]<br/>class = 0.0>, fillcolor="#eca36f"] ;
702 -> 704 ;
705 [label=<Origin &le; 174.5<br/>gini = 0.26<br/>samples = 13<br/>value = [11, 2]<br/>class = 0.0>, fillcolor="#ea985d"] ;
704 -> 705 ;
706 [label=<gini = 0.0<br/>samples = 1<br/>value = [0, 1]<br/>class = 1.0>, fillcolor="#399de5"] ;
705 -> 706 ;
707 [label=<Month &le; 3.5<br/>gini = 0.153<br/>samples = 12<br/>value = [11, 1]<br/>class = 0.0>, fillcolor="#e78c4b"] ;
705 -> 707 ;
708 [label=<DayofMonth &le; 11.5<br/>gini = 0.444<br/>samples = 3<br/>value = [2, 1]<br/>class = 0.0>, fillcolor="#f2c09c"] ;
707 -> 708 ;
709 [label=<gini = 0.0<br/>samples = 2<br/>value = [2, 0]<br/>class = 0.0>, fillcolor="#e58139"] ;
708 -> 709 ;
710 [label=<gini = 0.0<br/>samples = 1<br/>value = [0, 1]<br/>class = 1.0>, fillcolor="#399de5"] ;
708 -> 710 ;
711 [label=<gini = 0.0<br/>samples = 9<br/>value = [9, 0]<br/>class = 0.0>, fillcolor="#e58139"] ;
707 -> 711 ;
712 [label=<gini = 0.0<br/>samples = 1<br/>value = [0, 1]<br/>class = 1.0>, fillcolor="#399de5"] ;
704 -> 712 ;
713 [label=<gini = 0.0<br/>samples = 1<br/>value = [0, 1]<br/>class = 1.0>, fillcolor="#399de5"] ;
697 -> 713 ;
714 [label=<UniqueCarrier &le; 12.0<br/>gini = 0.444<br/>samples = 3<br/>value = [1, 2]<br/>class = 1.0>, fillcolor="#9ccef2"] ;
694 -> 714 ;
715 [label=<gini = 0.0<br/>samples = 1<br/>value = [1, 0]<br/>class = 0.0>, fillcolor="#e58139"] ;
714 -> 715 ;
716 [label=<gini = 0.0<br/>samples = 2<br/>value = [0, 2]<br/>class = 1.0>, fillcolor="#399de5"] ;
714 -> 716 ;
717 [label=<gini = 0.0<br/>samples = 32<br/>value = [32, 0]<br/>class = 0.0>, fillcolor="#e58139"] ;
693 -> 717 ;
718 [label=<DepTime &le; -1.276<br/>gini = 0.05<br/>samples = 472<br/>value = [460, 12]<br/>class = 0.0>, fillcolor="#e6843e"] ;
692 -> 718 ;
719 [label=<Month &le; 1.5<br/>gini = 0.104<br/>samples = 91<br/>value = [86, 5]<br/>class = 0.0>, fillcolor="#e78845"] ;
718 -> 719 ;
720 [label=<Dest &le; 78.0<br/>gini = 0.375<br/>samples = 8<br/>value = [6, 2]<br/>class = 0.0>, fillcolor="#eeab7b"] ;
719 -> 720 ;
721 [label=<UniqueCarrier &le; 7.5<br/>gini = 0.444<br/>samples = 3<br/>value = [1, 2]<br/>class = 1.0>, fillcolor="#9ccef2"] ;
720 -> 721 ;
722 [label=<gini = 0.0<br/>samples = 1<br/>value = [1, 0]<br/>class = 0.0>, fillcolor="#e58139"] ;
721 -> 722 ;
723 [label=<gini = 0.0<br/>samples = 2<br/>value = [0, 2]<br/>class = 1.0>, fillcolor="#399de5"] ;
721 -> 723 ;
724 [label=<gini = 0.0<br/>samples = 5<br/>value = [5, 0]<br/>class = 0.0>, fillcolor="#e58139"] ;
720 -> 724 ;
725 [label=<DepTime &le; -1.279<br/>gini = 0.07<br/>samples = 83<br/>value = [80, 3]<br/>class = 0.0>, fillcolor="#e68640"] ;
719 -> 725 ;
726 [label=<DayofMonth &le; 12.5<br/>gini = 0.049<br/>samples = 79<br/>value = [77, 2]<br/>class = 0.0>, fillcolor="#e6843e"] ;
725 -> 726 ;
727 [label=<DepTime &le; -1.283<br/>gini = 0.117<br/>samples = 32<br/>value = [30, 2]<br/>class = 0.0>, fillcolor="#e78946"] ;
726 -> 727 ;
728 [label=<flight &le; 4340.5<br/>gini = 0.064<br/>samples = 30<br/>value = [29, 1]<br/>class = 0.0>, fillcolor="#e68540"] ;
727 -> 728 ;
729 [label=<gini = 0.0<br/>samples = 25<br/>value = [25, 0]<br/>class = 0.0>, fillcolor="#e58139"] ;
728 -> 729 ;
730 [label=<UniqueCarrier &le; 14.0<br/>gini = 0.32<br/>samples = 5<br/>value = [4, 1]<br/>class = 0.0>, fillcolor="#eca06a"] ;
728 -> 730 ;
731 [label=<gini = 0.0<br/>samples = 1<br/>value = [0, 1]<br/>class = 1.0>, fillcolor="#399de5"] ;
730 -> 731 ;
732 [label=<gini = 0.0<br/>samples = 4<br/>value = [4, 0]<br/>class = 0.0>, fillcolor="#e58139"] ;
730 -> 732 ;
733 [label=<DepTime &le; -1.281<br/>gini = 0.5<br/>samples = 2<br/>value = [1, 1]<br/>class = 0.0>, fillcolor="#ffffff"] ;
727 -> 733 ;
734 [label=<gini = 0.0<br/>samples = 1<br/>value = [0, 1]<br/>class = 1.0>, fillcolor="#399de5"] ;
733 -> 734 ;
735 [label=<gini = 0.0<br/>samples = 1<br/>value = [1, 0]<br/>class = 0.0>, fillcolor="#e58139"] ;
733 -> 735 ;
736 [label=<gini = 0.0<br/>samples = 47<br/>value = [47, 0]<br/>class = 0.0>, fillcolor="#e58139"] ;
726 -> 736 ;
737 [label=<Origin &le; 228.5<br/>gini = 0.375<br/>samples = 4<br/>value = [3, 1]<br/>class = 0.0>, fillcolor="#eeab7b"] ;
725 -> 737 ;
738 [label=<gini = 0.0<br/>samples = 3<br/>value = [3, 0]<br/>class = 0.0>, fillcolor="#e58139"] ;
737 -> 738 ;
739 [label=<gini = 0.0<br/>samples = 1<br/>value = [0, 1]<br/>class = 1.0>, fillcolor="#399de5"] ;
737 -> 739 ;
740 [label=<Origin &le; 53.5<br/>gini = 0.036<br/>samples = 381<br/>value = [374, 7]<br/>class = 0.0>, fillcolor="#e5833d"] ;
718 -> 740 ;
741 [label=<Dest &le; 200.0<br/>gini = 0.124<br/>samples = 45<br/>value = [42, 3]<br/>class = 0.0>, fillcolor="#e78a47"] ;
740 -> 741 ;
742 [label=<flight &le; 557.5<br/>gini = 0.049<br/>samples = 40<br/>value = [39, 1]<br/>class = 0.0>, fillcolor="#e6843e"] ;
741 -> 742 ;
743 [label=<gini = 0.0<br/>samples = 33<br/>value = [33, 0]<br/>class = 0.0>, fillcolor="#e58139"] ;
742 -> 743 ;
744 [label=<DepTime &le; -1.05<br/>gini = 0.245<br/>samples = 7<br/>value = [6, 1]<br/>class = 0.0>, fillcolor="#e9965a"] ;
742 -> 744 ;
745 [label=<gini = 0.0<br/>samples = 5<br/>value = [5, 0]<br/>class = 0.0>, fillcolor="#e58139"] ;
744 -> 745 ;
746 [label=<DayofMonth &le; 15.5<br/>gini = 0.5<br/>samples = 2<br/>value = [1, 1]<br/>class = 0.0>, fillcolor="#ffffff"] ;
744 -> 746 ;
747 [label=<gini = 0.0<br/>samples = 1<br/>value = [0, 1]<br/>class = 1.0>, fillcolor="#399de5"] ;
746 -> 747 ;
748 [label=<gini = 0.0<br/>samples = 1<br/>value = [1, 0]<br/>class = 0.0>, fillcolor="#e58139"] ;
746 -> 748 ;
749 [label=<DayofMonth &le; 16.0<br/>gini = 0.48<br/>samples = 5<br/>value = [3, 2]<br/>class = 0.0>, fillcolor="#f6d5bd"] ;
741 -> 749 ;
750 [label=<gini = 0.0<br/>samples = 3<br/>value = [3, 0]<br/>class = 0.0>, fillcolor="#e58139"] ;
749 -> 750 ;
751 [label=<gini = 0.0<br/>samples = 2<br/>value = [0, 2]<br/>class = 1.0>, fillcolor="#399de5"] ;
749 -> 751 ;
752 [label=<UniqueCarrier &le; 9.5<br/>gini = 0.024<br/>samples = 336<br/>value = [332, 4]<br/>class = 0.0>, fillcolor="#e5833b"] ;
740 -> 752 ;
753 [label=<DepTime &le; -1.009<br/>gini = 0.117<br/>samples = 32<br/>value = [30, 2]<br/>class = 0.0>, fillcolor="#e78946"] ;
752 -> 753 ;
754 [label=<Origin &le; 107.0<br/>gini = 0.064<br/>samples = 30<br/>value = [29, 1]<br/>class = 0.0>, fillcolor="#e68540"] ;
753 -> 754 ;
755 [label=<Origin &le; 78.5<br/>gini = 0.375<br/>samples = 4<br/>value = [3, 1]<br/>class = 0.0>, fillcolor="#eeab7b"] ;
754 -> 755 ;
756 [label=<gini = 0.0<br/>samples = 3<br/>value = [3, 0]<br/>class = 0.0>, fillcolor="#e58139"] ;
755 -> 756 ;
757 [label=<gini = 0.0<br/>samples = 1<br/>value = [0, 1]<br/>class = 1.0>, fillcolor="#399de5"] ;
755 -> 757 ;
758 [label=<gini = 0.0<br/>samples = 26<br/>value = [26, 0]<br/>class = 0.0>, fillcolor="#e58139"] ;
754 -> 758 ;
759 [label=<flight &le; 2337.0<br/>gini = 0.5<br/>samples = 2<br/>value = [1, 1]<br/>class = 0.0>, fillcolor="#ffffff"] ;
753 -> 759 ;
760 [label=<gini = 0.0<br/>samples = 1<br/>value = [1, 0]<br/>class = 0.0>, fillcolor="#e58139"] ;
759 -> 760 ;
761 [label=<gini = 0.0<br/>samples = 1<br/>value = [0, 1]<br/>class = 1.0>, fillcolor="#399de5"] ;
759 -> 761 ;
762 [label=<DayofMonth &le; 2.5<br/>gini = 0.013<br/>samples = 304<br/>value = [302, 2]<br/>class = 0.0>, fillcolor="#e5823a"] ;
752 -> 762 ;
763 [label=<UniqueCarrier &le; 13.5<br/>gini = 0.111<br/>samples = 17<br/>value = [16, 1]<br/>class = 0.0>, fillcolor="#e78945"] ;
762 -> 763 ;
764 [label=<Dest &le; 124.5<br/>gini = 0.375<br/>samples = 4<br/>value = [3, 1]<br/>class = 0.0>, fillcolor="#eeab7b"] ;
763 -> 764 ;
765 [label=<gini = 0.0<br/>samples = 1<br/>value = [0, 1]<br/>class = 1.0>, fillcolor="#399de5"] ;
764 -> 765 ;
766 [label=<gini = 0.0<br/>samples = 3<br/>value = [3, 0]<br/>class = 0.0>, fillcolor="#e58139"] ;
764 -> 766 ;
767 [label=<gini = 0.0<br/>samples = 13<br/>value = [13, 0]<br/>class = 0.0>, fillcolor="#e58139"] ;
763 -> 767 ;
768 [label=<Dest &le; 248.5<br/>gini = 0.007<br/>samples = 287<br/>value = [286, 1]<br/>class = 0.0>, fillcolor="#e5813a"] ;
762 -> 768 ;
769 [label=<gini = 0.0<br/>samples = 234<br/>value = [234, 0]<br/>class = 0.0>, fillcolor="#e58139"] ;
768 -> 769 ;
770 [label=<Dest &le; 250.5<br/>gini = 0.037<br/>samples = 53<br/>value = [52, 1]<br/>class = 0.0>, fillcolor="#e6833d"] ;
768 -> 770 ;
771 [label=<DayOfWeek &le; 3.0<br/>gini = 0.219<br/>samples = 8<br/>value = [7, 1]<br/>class = 0.0>, fillcolor="#e99355"] ;
770 -> 771 ;
772 [label=<Month &le; 5.5<br/>gini = 0.5<br/>samples = 2<br/>value = [1, 1]<br/>class = 0.0>, fillcolor="#ffffff"] ;
771 -> 772 ;
773 [label=<gini = 0.0<br/>samples = 1<br/>value = [1, 0]<br/>class = 0.0>, fillcolor="#e58139"] ;
772 -> 773 ;
774 [label=<gini = 0.0<br/>samples = 1<br/>value = [0, 1]<br/>class = 1.0>, fillcolor="#399de5"] ;
772 -> 774 ;
775 [label=<gini = 0.0<br/>samples = 6<br/>value = [6, 0]<br/>class = 0.0>, fillcolor="#e58139"] ;
771 -> 775 ;
776 [label=<gini = 0.0<br/>samples = 45<br/>value = [45, 0]<br/>class = 0.0>, fillcolor="#e58139"] ;
770 -> 776 ;
777 [label=<DepTime &le; -1.12<br/>gini = 0.133<br/>samples = 7418<br/>value = [6885, 533]<br/>class = 0.0>, fillcolor="#e78b48"] ;
691 -> 777 ;
778 [label=<flight &le; 4991.5<br/>gini = 0.118<br/>samples = 3619<br/>value = [3392, 227]<br/>class = 0.0>, fillcolor="#e78946"] ;
777 -> 778 ;
779 [label=<UniqueCarrier &le; 3.5<br/>gini = 0.115<br/>samples = 3603<br/>value = [3382, 221]<br/>class = 0.0>, fillcolor="#e78946"] ;
778 -> 779 ;
780 [label=<DepTime &le; -1.26<br/>gini = 0.169<br/>samples = 506<br/>value = [459, 47]<br/>class = 0.0>, fillcolor="#e88e4d"] ;
779 -> 780 ;
781 [label=<DepTime &le; -1.262<br/>gini = 0.238<br/>samples = 253<br/>value = [218, 35]<br/>class = 0.0>, fillcolor="#e99559"] ;
780 -> 781 ;
782 [label=<Dest &le; 160.0<br/>gini = 0.221<br/>samples = 245<br/>value = [214.0, 31.0]<br/>class = 0.0>, fillcolor="#e99356"] ;
781 -> 782 ;
783 [label=<DepTime &le; -1.322<br/>gini = 0.154<br/>samples = 119<br/>value = [109, 10]<br/>class = 0.0>, fillcolor="#e78d4b"] ;
782 -> 783 ;
784 [label=<DayofMonth &le; 26.0<br/>gini = 0.444<br/>samples = 6<br/>value = [4, 2]<br/>class = 0.0>, fillcolor="#f2c09c"] ;
783 -> 784 ;
785 [label=<DayofMonth &le; 13.5<br/>gini = 0.32<br/>samples = 5<br/>value = [4, 1]<br/>class = 0.0>, fillcolor="#eca06a"] ;
784 -> 785 ;
786 [label=<DayOfWeek &le; 2.5<br/>gini = 0.5<br/>samples = 2<br/>value = [1, 1]<br/>class = 0.0>, fillcolor="#ffffff"] ;
785 -> 786 ;
787 [label=<gini = 0.0<br/>samples = 1<br/>value = [1, 0]<br/>class = 0.0>, fillcolor="#e58139"] ;
786 -> 787 ;
788 [label=<gini = 0.0<br/>samples = 1<br/>value = [0, 1]<br/>class = 1.0>, fillcolor="#399de5"] ;
786 -> 788 ;
789 [label=<gini = 0.0<br/>samples = 3<br/>value = [3, 0]<br/>class = 0.0>, fillcolor="#e58139"] ;
785 -> 789 ;
790 [label=<gini = 0.0<br/>samples = 1<br/>value = [0, 1]<br/>class = 1.0>, fillcolor="#399de5"] ;
784 -> 790 ;
791 [label=<DepTime &le; -1.264<br/>gini = 0.132<br/>samples = 113<br/>value = [105, 8]<br/>class = 0.0>, fillcolor="#e78b48"] ;
783 -> 791 ;
792 [label=<DayOfWeek &le; 4.5<br/>gini = 0.107<br/>samples = 106<br/>value = [100, 6]<br/>class = 0.0>, fillcolor="#e78945"] ;
791 -> 792 ;
793 [label=<DayofMonth &le; 28.5<br/>gini = 0.052<br/>samples = 75<br/>value = [73, 2]<br/>class = 0.0>, fillcolor="#e6843e"] ;
792 -> 793 ;
